float C1_kernels[6][5][5][1] =
{{{{ 0.06758775},
   {-0.14239149},
   { 0.09964229},
   { 0.0700128 },
   {-0.01137158}},

  {{ 0.05211542},
   {-0.03951311},
   { 0.10207731},
   { 0.05354614},
   { 0.00188354}},

  {{-0.03168349},
   { 0.12380423},
   { 0.06898858},
   { 0.00769708},
   { 0.0708326 }},

  {{-0.18920217},
   {-0.1043394 },
   {-0.12934446},
   {-0.02328184},
   {-0.12970543}},

  {{-0.03621555},
   {-0.17995976},
   {-0.07455981},
   {-0.14301686},
   {-0.00835995}}},


 {{{-0.14627741},
   { 0.08738771},
   { 0.05939166},
   { 0.00407775},
   {-0.05988074}},

  {{ 0.10183161},
   {-0.19423467},
   {-0.13553755},
   {-0.14926064},
   { 0.00492452}},

  {{-0.17235824},
   {-0.03479557},
   {-0.10176976},
   { 0.06875812},
   { 0.06922608}},

  {{-0.28305703},
   {-0.01957838},
   {-0.02269986},
   { 0.15141529},
   {-0.10376915}},

  {{-0.12354936},
   {-0.12396242},
   { 0.09470145},
   { 0.06922004},
   {-0.07890557}}},


 {{{-0.0169795 },
   {-0.05515241},
   {-0.09915161},
   {-0.02390584},
   { 0.09057969}},

  {{-0.21086617},
   {-0.10494999},
   {-0.15392956},
   {-0.03517935},
   {-0.13465759}},

  {{-0.13063283},
   { 0.10565484},
   { 0.01091859},
   {-0.1614954 },
   { 0.02381556}},

  {{ 0.09654237},
   { 0.04496811},
   {-0.05181837},
   {-0.24728464},
   {-0.06077464}},

  {{ 0.05731735},
   { 0.07551036},
   {-0.0174956 },
   {-0.06419423},
   {-0.08630291}}},


 {{{-0.01542213},
   { 0.02435449},
   {-0.06053092},
   { 0.06042756},
   {-0.04239733}},

  {{-0.09081957},
   { 0.08434483},
   { 0.02668478},
   {-0.11193645},
   {-0.06593326}},

  {{-0.0752775 },
   {-0.24394967},
   {-0.19573487},
   {-0.02085262},
   { 0.05449789}},

  {{-0.18824807},
   { 0.03695485},
   { 0.05639253},
   {-0.00841977},
   { 0.11853506}},

  {{ 0.01105339},
   { 0.06511555},
   { 0.07205226},
   { 0.01409201},
   {-0.14942239}}},


 {{{ 0.06577791},
   { 0.11349764},
   { 0.05229778},
   {-0.07932132},
   {-0.16653179}},

  {{-0.01781058},
   {-0.0267274 },
   { 0.12125238},
   {-0.12477855},
   {-0.1476541 }},

  {{ 0.1092733 },
   { 0.02653842},
   {-0.01526105},
   {-0.11137757},
   {-0.14995848}},

  {{-0.03890109},
   { 0.01462207},
   {-0.08049358},
   {-0.38508657},
   { 0.13487424}},

  {{-0.0409339 },
   {-0.08905099},
   {-0.0750773 },
   {-0.13072275},
   {-0.03086507}}},


 {{{ 0.00612505},
   { 0.00218805},
   { 0.02151373},
   { 0.05956893},
   { 0.02404731}},

  {{ 0.08952075},
   {-0.06088987},
   { 0.06352907},
   {-0.07707001},
   {-0.00347104}},

  {{ 0.01987061},
   { 0.06948708},
   {-0.04247123},
   { 0.05828476},
   { 0.04512518}},

  {{-0.07494766},
   { 0.10123391},
   {-0.03743098},
   {-0.01282007},
   { 0.10020535}},

  {{ 0.01300713},
   {-0.07310972},
   { 0.12277509},
   {-0.10785341},
   {-0.19983837}}}};
float C1_biases[6] =
{-0.00344671,-0.06796838, 0.03813603,-0.28574467,-0.01391455,-0.26182032};
float C3_kernels[16][5][5][6] =
{{{{-1.02224633e-01, 1.83549270e-01,-1.01548277e-01, 1.22144908e-01,
     4.59626280e-02,-2.66942717e-02},
   {-2.79594772e-02, 5.05743250e-02,-8.84515718e-02, 2.34017000e-02,
     2.82982457e-02, 5.80044873e-02},
   {-9.88383219e-02,-1.57735348e-01,-7.25447852e-03,-9.17792618e-02,
     3.91108841e-02, 1.00956736e-02},
   { 2.69191749e-02,-6.05942756e-02, 8.94774217e-03,-9.93284732e-02,
     1.07663311e-01, 2.49303877e-02},
   {-2.59703957e-03,-3.84697467e-02, 7.85452407e-03,-1.45444730e-02,
    -7.01298714e-02,-1.56527180e-02}},

  {{ 4.09129336e-02, 1.16127893e-01,-9.04549211e-02, 8.71598423e-02,
    -9.96285491e-03, 4.36883979e-03},
   {-1.91671494e-02,-6.09070584e-02,-1.66762888e-01,-1.64001081e-02,
    -7.62215955e-03, 1.12413190e-01},
   { 3.97433080e-02, 4.81573865e-02,-9.00559798e-02,-5.35139292e-02,
     2.56164242e-02,-1.59900989e-02},
   { 5.03388569e-02, 3.87337804e-02,-4.12401278e-03,-1.14479102e-01,
     5.29897362e-02, 8.48057494e-03},
   {-3.62378508e-02, 1.40523076e-01,-3.11806705e-03, 1.12493627e-01,
    -1.84838533e-01,-1.14185298e-02}},

  {{ 7.12427571e-02, 9.39345881e-02, 2.79274154e-02,-1.09210737e-01,
     1.51500851e-02,-7.32210353e-02},
   {-4.62139435e-02,-1.53974399e-01, 3.63200009e-02, 1.57205388e-02,
    -5.86869530e-02, 1.56884696e-02},
   {-1.23276506e-02, 4.43073995e-02, 1.64398804e-01,-1.04746558e-01,
    -1.02787867e-01, 4.31772470e-02},
   { 4.43527214e-02, 8.69790837e-02, 1.18794270e-01,-7.97294602e-02,
    -1.60103351e-01, 5.15969023e-02},
   {-1.06912360e-01, 3.26642431e-02,-4.99590337e-02, 3.12639140e-02,
     2.56759785e-02,-2.38930639e-02}},

  {{ 8.02331716e-02,-1.00080326e-01, 1.69955790e-01,-3.39391851e-03,
    -1.76590294e-01,-9.14585963e-03},
   {-1.65213342e-03,-7.94672966e-02, 1.05495833e-01,-1.96055144e-01,
    -2.53001060e-02,-1.08848758e-01},
   {-1.49907872e-01,-1.37692451e-01, 2.60758493e-02,-5.91734052e-02,
    -6.81650788e-02,-8.01354647e-02},
   {-4.62298952e-02, 5.15751764e-02,-5.40152006e-02, 1.91222411e-03,
    -4.88172621e-02,-1.10359177e-01},
   {-6.93200454e-02, 1.15220577e-01,-3.01003810e-02,-1.24787755e-01,
     5.27512692e-02, 3.08111291e-02}},

  {{-6.12698458e-02,-1.33300191e-02,-1.40892742e-02, 1.78404730e-02,
    -1.22056596e-01, 3.59972119e-02},
   {-1.02435008e-01,-5.88053875e-02, 5.97139560e-02,-7.92664289e-02,
    -1.35848358e-01,-4.40719277e-02},
   {-1.10196427e-01,-2.31958330e-01,-3.57886814e-02,-3.34834121e-02,
     1.09162152e-01,-4.24681120e-02},
   { 4.06309590e-03,-1.21809639e-01,-3.01809460e-02,-9.33534503e-02,
     2.26939768e-02, 4.43327799e-02},
   {-2.23987568e-02,-5.70679456e-02,-3.40476707e-02, 1.38479816e-02,
    -7.44272768e-02, 2.71159746e-02}}},


 {{{-1.41019955e-01,-9.80373621e-02,-8.63507465e-02,-7.15408176e-02,
    -1.57343239e-01,-3.81398052e-02},
   {-2.73584388e-02, 3.03794583e-03, 7.95902312e-02,-1.99415192e-01,
     1.82060003e-02, 8.29564128e-03},
   { 4.32194285e-02,-3.20630968e-02, 4.11374681e-02,-1.62547126e-01,
     1.25664091e-02,-1.01099662e-01},
   {-6.13350980e-03,-1.44490693e-02, 7.81610026e-04,-1.52193725e-01,
    -1.09115966e-01, 6.69913217e-02},
   {-6.07467927e-02, 1.62892148e-01,-2.05492154e-01,-6.91593587e-02,
    -4.23239022e-02, 4.43082564e-02}},

  {{-7.26334825e-02,-1.01219594e-01, 5.98267242e-02,-4.27281559e-02,
    -1.23554453e-01,-2.03291610e-01},
   {-5.44701926e-02,-8.16926137e-02,-1.38680950e-01,-1.09429091e-01,
    -9.57024097e-02,-2.37096008e-02},
   { 7.32044736e-03,-9.92230922e-02, 2.03755796e-02,-8.78596529e-02,
    -3.20105930e-04, 1.74695253e-02},
   {-1.05010226e-01,-1.15677737e-01, 6.46395609e-02,-2.29799449e-01,
    -1.15130417e-01,-2.14191992e-02},
   {-2.36008447e-02, 2.04888716e-01,-1.03350654e-01, 2.88104638e-04,
    -2.94998847e-02, 6.73098117e-02}},

  {{-1.80936337e-01,-1.56128383e-03, 7.77169764e-02, 1.52632445e-02,
    -2.12236136e-01,-6.02725782e-02},
   {-1.29795119e-01,-1.81053370e-01,-1.72850862e-03, 7.75822923e-02,
     2.29783598e-02,-1.37085646e-01},
   { 1.27765968e-01,-3.39249917e-03, 1.22889213e-01, 1.95197742e-02,
    -9.08844098e-02,-1.83009240e-03},
   {-4.61552516e-02,-1.93443865e-01,-3.53984386e-02,-1.22949436e-01,
    -1.02053963e-01, 1.22427426e-01},
   {-1.45238057e-01,-6.93453616e-03,-8.51757303e-02,-1.56404097e-02,
    -1.32743821e-01,-4.34995480e-02}},

  {{-1.43825188e-01,-1.44273430e-01, 3.78546007e-02,-7.83513933e-02,
    -1.14253156e-01,-9.39364955e-02},
   {-1.42526645e-02,-9.43477526e-02,-1.27095073e-01,-1.65867493e-01,
    -8.50698352e-02,-1.91569939e-01},
   { 1.63754635e-02,-4.45133075e-02, 7.67659619e-02,-6.10267036e-02,
    -1.42123863e-01,-1.28497183e-02},
   { 1.45678282e-01,-1.64860532e-01, 6.59314170e-02, 2.62267441e-02,
    -8.28008950e-02,-5.64999394e-02},
   { 3.21797021e-02,-1.45692304e-01, 1.87619142e-02, 1.50975469e-03,
    -1.61966398e-01,-5.67985512e-03}},

  {{-3.95113714e-02, 6.04633540e-02, 1.94831446e-01,-7.19857216e-02,
     5.85154966e-02, 1.29887864e-01},
   {-6.49490282e-02, 5.70847169e-02, 6.72145337e-02, 3.44419628e-02,
    -1.03427656e-01,-2.30787136e-02},
   {-1.40191913e-01,-1.43762538e-02,-8.43793526e-02, 6.26667365e-02,
    -1.24042995e-01,-3.43937539e-02},
   {-1.01243779e-01,-1.07634179e-01, 1.07507862e-01,-1.27215693e-02,
    -1.19278580e-01,-6.01655617e-02},
   { 9.32001546e-02, 7.32670426e-02, 8.72994140e-02,-2.82681827e-02,
    -1.37138024e-01, 3.45342001e-03}}},


 {{{ 2.98325457e-02,-1.20458109e-02, 8.69238898e-02,-4.77166548e-02,
     8.45749304e-02,-3.61306481e-02},
   {-3.75261530e-03,-2.36465074e-02, 2.81982627e-02, 3.66140483e-03,
     4.81577739e-02, 6.91273734e-02},
   {-4.02621366e-02,-1.61587971e-03,-4.87747230e-02,-3.16218324e-02,
    -1.31494841e-02, 6.95563667e-03},
   { 6.16072081e-02,-1.50279313e-01, 6.79858476e-02,-6.03434779e-02,
    -1.46474004e-01,-7.60206804e-02},
   { 5.74203543e-02,-1.63205668e-01,-6.56726584e-02,-1.15022056e-01,
     1.75623351e-03,-6.31789491e-02}},

  {{-8.73712376e-02,-1.77240407e-03, 1.47640139e-01,-1.07043423e-01,
     4.62662540e-02, 1.39305471e-02},
   { 2.49836221e-02, 9.61346999e-02,-9.88911763e-02, 6.57938644e-02,
     6.07521124e-02,-6.71380758e-02},
   { 5.53145967e-02, 3.15042809e-02, 1.50630651e-02, 2.44274568e-02,
    -4.93918220e-03,-9.67930257e-02},
   {-5.64459488e-02, 2.64249109e-02,-1.56186879e-01, 1.49291426e-01,
    -9.58406404e-02,-2.41604336e-02},
   {-1.83991328e-01, 3.02369017e-02,-1.59184679e-01,-1.05496440e-02,
    -9.79843363e-02,-4.81819622e-02}},

  {{-5.39163798e-02,-2.86075305e-02, 5.25896922e-02,-9.80788991e-02,
     3.19324844e-02, 6.95508718e-03},
   { 9.11987014e-03, 1.27710387e-01,-2.51129866e-01,-8.37443843e-02,
     2.52750944e-02,-7.12440908e-02},
   {-1.11639924e-01, 1.33146301e-01, 4.32869978e-02, 7.54634067e-02,
    -1.31952882e-01,-6.17759153e-02},
   { 5.66289425e-02, 1.41214803e-01, 1.24078818e-01, 1.35232270e-01,
    -1.43593654e-01, 2.48674341e-02},
   { 9.89015624e-02,-2.08262205e-02,-2.07559783e-02, 4.43096906e-02,
    -1.42215595e-01, 8.00069701e-03}},

  {{-1.91884741e-01,-1.20614037e-01,-3.19570005e-02,-9.57374796e-02,
     1.85307581e-02,-2.95197461e-02},
   {-2.51335241e-02,-4.31531155e-03,-1.43027857e-01, 8.08036327e-02,
     5.96068660e-03,-2.22890414e-02},
   { 8.72956216e-03, 1.16388775e-01,-2.02593673e-02,-1.86802242e-02,
    -9.94320363e-02,-2.26647835e-02},
   { 3.65102640e-03, 2.69418359e-02, 2.15666499e-02,-7.13024288e-03,
     9.12427232e-02, 5.10012545e-02},
   {-3.94549854e-02, 8.70498642e-02,-7.60230124e-02,-8.32371712e-02,
     1.55451614e-02, 2.66923588e-02}},

  {{-1.17367785e-02,-2.95402519e-02,-3.48903313e-02, 1.02639064e-01,
    -3.47773768e-02,-8.58157594e-03},
   {-3.62170190e-02,-1.05090536e-01, 5.67212142e-02, 4.30077091e-02,
     1.42754037e-02,-1.32435039e-01},
   { 4.13977019e-02,-1.25071079e-01,-2.00022552e-02,-3.16222720e-02,
    -7.80821368e-02,-1.90371070e-02},
   {-2.04304568e-02,-2.08098128e-01,-1.21478640e-01,-1.07337058e-01,
    -4.49393168e-02,-1.19033968e-02},
   {-2.90039852e-02,-1.72982216e-01,-3.56716327e-02,-4.17269394e-02,
    -4.24048528e-02,-1.15405060e-01}}},


 {{{-1.32713635e-02,-2.11073067e-02, 5.99446110e-02,-5.04561923e-02,
     7.19713271e-02,-1.10529244e-01},
   {-3.35876159e-02, 8.43069106e-02,-7.33684609e-03,-3.11433338e-02,
     6.44926354e-02, 2.39769858e-03},
   {-1.36508476e-02, 9.26748216e-02, 1.37197301e-01, 2.95575373e-02,
     3.51013727e-02,-5.46335503e-02},
   { 2.81989784e-03, 7.79719874e-02,-4.78216782e-02, 9.95664224e-02,
     1.05072670e-01,-1.81857690e-01},
   {-1.02186732e-01, 8.13300833e-02, 7.94372708e-02, 2.25942079e-02,
     7.13006780e-02,-1.20931126e-01}},

  {{ 2.82703843e-02, 4.32473384e-02, 1.72939241e-01,-1.78558201e-01,
    -8.91862512e-02,-8.01955238e-02},
   {-9.78932530e-03, 1.43375367e-01,-2.54830401e-02,-1.15548089e-01,
     7.15856478e-02, 2.73075588e-02},
   {-5.99775799e-02, 1.18500423e-02, 1.19206227e-01,-2.43815146e-02,
     2.50952728e-02,-2.83619445e-02},
   {-7.74439946e-02, 2.81028841e-02, 1.37235969e-01, 6.63423389e-02,
    -6.67263195e-02,-8.16976875e-02},
   {-1.79897070e-01,-8.74187239e-03, 7.82650635e-02, 8.73850435e-02,
    -2.04008780e-02,-3.34258787e-02}},

  {{ 5.23998514e-02,-1.17033489e-01, 2.37113848e-01,-7.07940608e-02,
    -5.93224689e-02,-3.42281833e-02},
   {-1.39089078e-01, 3.54703912e-03,-2.09320765e-02,-1.19499385e-01,
    -2.06806213e-02,-9.51289833e-02},
   {-2.15889558e-01, 3.39383446e-02,-1.49288177e-01, 4.59346268e-03,
     9.53969136e-02, 4.65099923e-02},
   {-1.10658810e-01, 2.88641313e-03, 5.37538007e-02,-6.84195086e-02,
     7.30640516e-02,-2.43381243e-02},
   {-3.56462300e-02,-9.85584036e-03, 5.86324604e-04,-9.75434929e-02,
     3.90156470e-02, 4.22731377e-02}},

  {{-1.05452895e-01,-8.39198530e-02, 1.28195316e-01, 6.80482190e-04,
    -3.65492813e-02, 5.93073964e-02},
   {-1.45043477e-01, 6.31038994e-02,-2.40061749e-02,-9.90519971e-02,
     3.10964207e-03,-1.97162390e-01},
   {-1.13673560e-01,-4.15892573e-03,-1.36687413e-01,-2.13234709e-03,
     2.91511938e-02, 7.21531883e-02},
   {-7.45645389e-02,-5.45409173e-02, 2.48415414e-02,-4.12577018e-02,
    -9.53859091e-02, 1.01777233e-01},
   { 6.40043542e-02,-1.13168083e-01,-1.80767663e-02,-1.60907373e-01,
     5.61506636e-02,-3.08458023e-02}},

  {{-8.40559155e-02,-2.78733652e-02,-5.34220114e-02, 8.30746517e-02,
     8.86179581e-02, 6.10855334e-02},
   {-2.07126096e-01, 5.85424863e-02,-4.90049161e-02,-8.13910961e-02,
    -2.40011156e-01,-2.07217515e-01},
   {-1.30879268e-01, 1.27380742e-02,-5.02087437e-02,-1.67270467e-01,
     9.19222552e-03,-3.04452330e-02},
   {-1.19260974e-01,-1.83705166e-01,-1.36831895e-01,-1.99919581e-01,
    -1.87434573e-02, 5.53773530e-02},
   { 1.95128601e-02,-8.45687017e-02, 6.63876981e-02, 1.78971514e-02,
     3.27461027e-02, 3.90339233e-02}}},


 {{{ 2.00140066e-02,-1.57073848e-02,-2.42564157e-02,-6.93352371e-02,
    -6.50970638e-02,-9.52727273e-02},
   {-9.94732901e-02,-2.46965159e-02, 7.88966790e-02,-1.78167552e-01,
     1.09428443e-01,-1.25145108e-01},
   { 5.29299444e-03,-1.29863203e-01, 4.73098978e-02,-1.40893027e-01,
    -1.66762434e-02,-1.97997957e-01},
   {-1.59341656e-02,-2.89187841e-02,-7.20539466e-02,-1.06141336e-01,
    -1.30037934e-01,-1.81404799e-01},
   { 9.00226012e-02,-3.51475948e-03, 8.59972928e-03, 2.53490545e-02,
     2.78932247e-02, 2.36293003e-02}},

  {{-1.02073312e-01, 8.92702863e-02,-9.38315988e-02,-6.03612065e-02,
     5.49280904e-02,-7.16633797e-02},
   {-1.07867114e-01,-3.47456895e-02, 9.18628126e-02,-7.53876579e-04,
     5.92808872e-02, 6.36580866e-03},
   {-1.61320046e-01,-5.16341403e-02,-1.01968564e-01, 1.64290816e-02,
    -1.95042547e-02,-2.76554197e-01},
   {-1.44912256e-02,-1.08154260e-01,-1.18664280e-03, 1.37923911e-01,
    -2.16925263e-01,-2.19365135e-01},
   {-1.18376769e-01,-9.61464737e-03,-7.79594406e-02, 4.22026739e-02,
    -2.04921782e-01,-5.27502336e-02}},

  {{ 1.12701684e-01,-6.93748966e-02, 1.18088368e-02, 3.92413989e-04,
    -1.44435182e-01, 8.54610875e-02},
   {-8.54754541e-03,-1.41128683e-02, 6.49875030e-02, 1.49107934e-03,
    -3.35247815e-02, 5.38692586e-02},
   {-1.16544394e-02,-1.24182537e-01,-5.96343316e-02, 7.29782432e-02,
    -1.05085194e-01, 3.27724069e-02},
   {-2.54034158e-02,-7.29045644e-02, 1.80513352e-01, 9.11951885e-02,
     2.81801317e-02,-6.40967190e-02},
   { 1.20782284e-02,-8.28993767e-02,-4.09755819e-02, 4.52215038e-02,
    -4.95669208e-02,-6.69893399e-02}},

  {{ 7.91581720e-02,-2.38862205e-02, 2.21800581e-02,-1.34476244e-01,
    -4.74811532e-02, 1.95923299e-02},
   { 1.00118823e-01,-6.20597089e-03, 4.05121446e-02,-1.70130000e-01,
     1.18693048e-02, 7.44163990e-02},
   { 1.16407447e-01, 8.26583616e-03,-8.66659954e-02, 8.06743000e-03,
     9.58459750e-02, 7.46760964e-02},
   { 4.70734648e-02,-6.31345287e-02, 4.03379556e-03,-1.95312575e-02,
     8.13700333e-02, 4.43788432e-02},
   { 5.58316521e-02, 5.28944433e-02,-6.38088658e-02,-9.43542738e-03,
     8.80667716e-02, 8.64204094e-02}},

  {{-7.08041852e-03,-6.83006793e-02,-4.08864440e-03,-7.25001916e-02,
    -3.81987132e-02,-3.93722616e-02},
   {-1.43838404e-02,-7.02134892e-03, 1.27576143e-02,-9.50149819e-02,
     2.96640657e-02,-9.67803225e-02},
   {-2.85137072e-02,-6.41490275e-04, 1.34143187e-02,-4.71879728e-02,
    -8.57627206e-03,-1.02083258e-01},
   {-2.12963186e-02,-4.23327088e-02, 1.25010476e-01,-8.48946907e-03,
     7.10629448e-02,-1.74863450e-02},
   {-1.17584184e-01,-7.35743642e-02,-5.33882864e-02,-7.15375245e-02,
     6.52099103e-02,-5.11559658e-03}}},


 {{{ 2.18263306e-02, 1.12819955e-01,-7.44498670e-02, 2.95028742e-02,
    -4.57732566e-03,-7.32816607e-02},
   {-3.75143923e-02,-1.04020648e-01,-9.20408964e-02,-6.02816306e-02,
    -7.10464641e-02, 5.16744070e-02},
   {-7.25361705e-02,-2.92250048e-02,-4.43780012e-02, 6.36206716e-02,
     1.34882480e-02,-1.09868618e-02},
   {-4.36795168e-02, 3.44302766e-02,-8.36385507e-03, 5.01172990e-03,
    -1.23655826e-01, 1.99360643e-02},
   {-3.14528644e-02,-1.01369083e-01,-6.42473102e-02, 4.71815607e-03,
    -9.96581931e-03, 4.93440144e-02}},

  {{-9.56048891e-02,-5.39365262e-02,-1.48210430e-03,-7.21535608e-02,
     4.84846020e-03,-4.00634892e-02},
   { 5.68857528e-02,-9.98074412e-02,-4.56172712e-02, 5.27049825e-02,
     1.35122091e-01,-4.00004014e-02},
   {-4.00841758e-02, 5.75233325e-02,-2.96588168e-02,-7.54811168e-02,
    -4.58115563e-02, 2.26996094e-02},
   { 5.82579225e-02, 3.54600996e-02, 7.69032538e-03, 1.32151246e-02,
     4.26979316e-03, 1.09574772e-01},
   { 7.66394064e-02, 7.14231506e-02,-3.17706801e-02,-3.39455344e-02,
     9.16506872e-02, 1.00624613e-01}},

  {{ 2.28091646e-02,-7.35753775e-02, 4.76132967e-02, 1.30137056e-02,
    -8.81074443e-02, 6.17726147e-02},
   { 8.33181664e-02,-3.83536629e-02, 2.15618983e-02,-9.18223411e-02,
    -8.70386437e-02,-7.94107169e-02},
   { 1.37861401e-01,-1.70205757e-01,-2.38497294e-02,-4.64510210e-02,
    -6.83418522e-03,-5.05783334e-02},
   { 2.98470054e-02, 2.81051919e-02,-8.73693153e-02, 2.38175020e-02,
     1.19520098e-01,-4.23752815e-02},
   { 9.76283848e-02, 1.75933652e-02,-5.68975583e-02,-8.80000517e-02,
     1.17744036e-01,-4.04574126e-02}},

  {{ 1.27937183e-01,-1.98418908e-02, 1.22596376e-01,-3.75830494e-02,
    -1.92059614e-02,-1.73072738e-03},
   {-6.67635798e-02,-3.81395966e-02, 1.98870692e-02,-7.37413811e-03,
    -1.05207428e-01, 2.30461378e-02},
   {-3.37736346e-02, 2.60111094e-02, 6.15288243e-02, 3.91116217e-02,
     2.18354706e-02,-2.69316435e-02},
   {-8.71108621e-02,-7.47863948e-02, 3.91958058e-02, 2.37202439e-02,
    -3.70941199e-02,-1.72391161e-01},
   {-1.57374531e-01,-1.90215968e-02, 1.20714501e-01, 1.44103095e-01,
    -1.30566927e-02,-2.18843862e-01}},

  {{-6.54938221e-02, 1.09580241e-01, 3.84324156e-02,-6.33746162e-02,
    -1.08130500e-01,-6.89865127e-02},
   {-1.32905647e-01, 7.38250911e-02, 5.97637556e-02, 9.93143916e-02,
    -9.05071869e-02, 7.50237182e-02},
   {-8.47050399e-02, 4.47299890e-02,-1.19142625e-02,-2.82061063e-02,
    -2.92682890e-02, 7.44551793e-02},
   {-7.04942504e-04, 4.63391133e-02,-1.60208251e-02,-6.73017874e-02,
    -9.34072733e-02,-7.30031058e-02},
   { 2.24826522e-02,-1.94595344e-02, 9.06472579e-02,-1.70676067e-01,
     9.04447585e-03,-8.28216821e-02}}},


 {{{-1.67846754e-01, 5.09562679e-02, 5.34117073e-02,-8.53422433e-02,
    -2.99709979e-02,-4.84386906e-02},
   { 2.89842170e-02, 8.27441216e-02, 2.00117752e-02, 2.06871852e-02,
    -3.15972045e-02,-1.69916466e-01},
   { 8.38888586e-02,-5.26661314e-02, 6.87943548e-02,-1.78171489e-02,
    -1.43893793e-01, 6.26792163e-02},
   { 8.42283890e-02,-1.59383640e-01, 1.20631931e-02,-7.19942525e-02,
    -1.86341792e-01, 5.40191829e-02},
   {-2.49640737e-02, 1.99055988e-02, 3.92553098e-02, 2.93730106e-02,
    -1.59841284e-01,-1.89220738e-02}},

  {{-9.56156701e-02, 9.31667723e-03, 4.46257629e-02,-1.48602813e-01,
     2.67092767e-03,-7.15503767e-02},
   {-1.11437440e-01, 1.36781082e-01,-4.95369732e-02, 1.05315417e-01,
     3.12728100e-02,-1.22890227e-01},
   {-2.39118174e-01,-1.58262536e-01, 2.38689661e-01, 9.86597985e-02,
     3.31014171e-02, 4.44097593e-02},
   {-7.32689798e-02,-9.81156598e-04, 6.49877042e-02,-1.07577421e-01,
    -9.87250879e-02,-3.72221172e-02},
   {-6.95704529e-03, 1.37638539e-01,-8.66343603e-02,-2.35085823e-02,
    -1.68586701e-01,-2.55085845e-02}},

  {{-5.46806566e-02, 9.37127322e-02,-5.29775508e-02,-9.45402011e-02,
    -6.62132949e-02,-1.16711043e-01},
   {-6.31389469e-02, 3.53958346e-02, 1.62785947e-01, 3.05202287e-02,
    -6.79516718e-02,-1.10113593e-02},
   {-2.89910492e-02, 1.97039992e-02, 5.70132919e-02,-7.70675763e-02,
     1.96226966e-02, 8.70203376e-02},
   {-1.35575637e-01, 8.39396939e-02,-1.09774932e-01,-1.00888401e-01,
     1.91438012e-02,-1.68017954e-01},
   {-1.34505451e-01, 8.16124603e-02,-1.27169341e-01, 7.72102037e-03,
    -8.39097202e-02,-1.10825062e-01}},

  {{-4.22657654e-02, 8.86745900e-02,-7.02185854e-02,-4.64254320e-02,
     3.31248865e-02,-9.35521647e-02},
   {-6.22340925e-02, 6.89892918e-02,-1.23050086e-01,-8.50089192e-02,
    -4.97704297e-02,-5.87291680e-02},
   { 1.13611314e-02, 1.08300196e-02, 6.09242823e-03,-4.45598401e-02,
     3.85214761e-02, 7.61580914e-02},
   {-9.42255929e-02,-7.03657493e-02,-5.89034744e-02, 4.76469062e-02,
    -5.38190827e-02,-1.18622348e-01},
   {-1.65103957e-01,-3.28415260e-02,-1.18282139e-01, 2.30283272e-02,
     6.80113137e-02, 6.93987757e-02}},

  {{-1.61715880e-01, 1.82936620e-02, 1.32353872e-01, 1.35870567e-02,
    -9.94455665e-02, 5.38655184e-02},
   {-6.56294450e-02,-3.45869735e-02, 1.10191509e-01,-5.26710302e-02,
    -8.71547312e-02,-7.54599646e-02},
   {-3.42248566e-02,-1.22186475e-01,-2.73084119e-02,-1.69676453e-01,
    -2.99034063e-02,-9.42496061e-02},
   {-1.09088227e-01, 3.96090634e-02,-6.11472391e-02,-3.09561798e-03,
    -7.46080279e-02,-2.99748145e-02},
   {-2.33602943e-03, 3.79124619e-02, 1.75078586e-02,-3.39794792e-02,
     1.65191501e-01,-1.30488994e-02}}},


 {{{-2.37284508e-02, 9.04488862e-02, 1.20394275e-01, 5.69057709e-04,
     1.38276787e-02,-1.08774580e-01},
   { 4.94571440e-02, 4.22065631e-02, 3.97217609e-02,-4.73207310e-02,
     2.16502082e-02,-2.97429133e-02},
   {-1.03202201e-01, 7.17974231e-02, 4.13188897e-02,-7.31293708e-02,
    -1.21108845e-01,-2.53520291e-02},
   { 6.24766946e-02, 8.09765905e-02,-3.66370790e-02,-3.02065145e-02,
     5.74933663e-02, 8.24652053e-03},
   {-1.05461374e-01,-5.10802902e-02,-7.58255720e-02, 3.72104235e-02,
    -2.79001910e-02, 1.73151214e-02}},

  {{ 9.55139380e-03, 4.18237709e-02,-5.43807633e-02, 9.04644057e-02,
     2.69892346e-02, 5.55943996e-02},
   { 2.64754868e-03, 5.49436249e-02,-1.68125294e-02, 1.98453814e-02,
     8.06031153e-02, 3.51124965e-02},
   {-3.36263515e-02, 8.28671008e-02, 8.15454349e-02,-5.01383133e-02,
     1.21320762e-01,-9.91687626e-02},
   {-1.78684175e-01, 1.23657167e-01, 4.40960340e-02, 3.69008332e-02,
     5.13437912e-02, 6.54162243e-02},
   {-1.35417446e-01, 4.96192798e-02,-2.68665284e-01, 5.89738861e-02,
     7.12037086e-02, 5.77507056e-02}},

  {{-8.85543600e-02, 8.18207934e-02, 3.55804749e-02, 4.14831601e-02,
    -6.27426803e-02, 7.16548786e-02},
   { 1.30149517e-02, 5.77945411e-02,-6.85433904e-03,-3.20717841e-02,
     4.77106832e-02,-2.50423793e-02},
   {-1.32550552e-01, 7.81204700e-02,-9.60364714e-02, 3.58636305e-03,
     1.26793593e-01,-2.16263123e-02},
   {-2.10655957e-01, 8.28792453e-02,-2.25959957e-01, 2.48773750e-02,
     1.18022144e-01, 7.64818266e-02},
   {-1.18629247e-01, 1.21800810e-01,-1.39201000e-01, 1.07713304e-02,
     9.41050127e-02, 8.24785456e-02}},

  {{ 4.73273732e-03,-5.83850630e-02,-1.94743291e-01,-8.74976069e-02,
     6.72330931e-02,-4.30572368e-02},
   { 7.38565344e-03,-8.12082887e-02, 2.28448771e-02, 5.76233445e-03,
     8.43850970e-02,-1.11696504e-01},
   {-3.29023898e-02,-1.20978812e-02,-5.08157723e-02,-6.95677102e-02,
    -5.01732379e-02,-1.04606235e-02},
   {-8.95968229e-02,-9.25403014e-02,-3.54829133e-02,-2.60482747e-02,
     4.04450037e-02,-5.74032143e-02},
   {-1.76268324e-01, 8.02814737e-02, 1.43604398e-01, 1.18658721e-01,
    -2.06169076e-02,-2.80902125e-02}},

  {{-1.93364739e-01,-6.83910996e-02,-7.85752460e-02, 3.22514214e-03,
    -9.49257240e-02, 7.56383464e-02},
   {-2.37055585e-01,-1.13248348e-01, 5.87182082e-02, 3.95652167e-02,
    -1.27484605e-01,-1.02742210e-01},
   {-2.29004379e-02,-1.90638095e-01, 8.15259945e-03,-4.66933735e-02,
    -8.62241164e-02, 2.53640376e-02},
   { 4.81947027e-02,-1.66096449e-01, 1.39882490e-01,-1.07759647e-01,
    -1.73135355e-01, 7.45494589e-02},
   { 5.68982074e-03,-1.21776454e-01, 1.09195761e-01, 8.18336159e-02,
    -3.27739537e-01,-3.18664908e-02}}},


 {{{-7.17274249e-02,-2.10163724e-02,-1.11945653e-02,-1.29933655e-01,
    -2.98715308e-02, 1.10025205e-01},
   { 3.32228723e-03,-3.21961939e-02,-5.36124222e-02, 7.90754035e-02,
     3.61785032e-02, 9.48014334e-02},
   { 3.14666219e-02,-7.20194355e-02, 2.34164367e-03, 6.04762696e-03,
     7.72567317e-02, 2.49793218e-03},
   { 8.65544751e-03, 6.76362887e-02,-7.47092441e-02, 7.39573175e-03,
     9.67960730e-02, 3.77967656e-02},
   { 7.88558647e-02,-5.71017228e-02, 5.89507557e-02, 4.78460034e-03,
     7.43528306e-02, 8.11206475e-02}},

  {{-4.94267792e-02,-4.42907438e-02, 7.71235973e-02, 5.50829135e-02,
    -7.66590908e-02, 2.53495872e-02},
   {-1.89520821e-01,-2.16968402e-01,-7.59733096e-03,-5.38553819e-02,
     8.39037523e-02, 9.52538997e-02},
   { 3.48983668e-02,-1.16123006e-01, 6.35852739e-02,-2.26536453e-01,
    -6.21088222e-02,-7.76453242e-02},
   { 1.26091748e-01,-3.08039598e-02,-9.30251777e-02,-9.86029487e-03,
    -6.11396087e-03,-3.53207216e-02},
   {-4.57365823e-04, 4.31395136e-04,-1.94721669e-02,-2.27552697e-01,
    -2.82397401e-02,-5.70099838e-02}},

  {{ 5.07766521e-03,-3.92239466e-02,-2.47395057e-02,-1.73486695e-01,
    -1.81959078e-01, 4.11464684e-02},
   {-1.36320353e-01,-1.33383870e-01,-6.17216043e-02,-6.79450184e-02,
    -7.18287891e-03, 1.11390434e-01},
   {-1.78169072e-01,-5.13347611e-02,-5.36217541e-02,-5.30820638e-02,
    -1.55721411e-01, 5.89438044e-02},
   {-1.28317941e-02,-2.91770864e-02,-2.57767886e-02,-1.59807354e-01,
    -5.52528054e-02,-8.65309462e-02},
   {-1.17852181e-01,-2.09851712e-02,-9.64982361e-02,-1.53244242e-01,
    -5.46829216e-02,-6.59329742e-02}},

  {{ 1.93106309e-02, 9.39487815e-02,-2.30887383e-02,-1.27440477e-02,
    -1.84721187e-01,-6.56489953e-02},
   {-5.61643392e-02, 2.64760163e-02,-2.00470481e-02, 3.10064629e-02,
    -1.80388335e-02, 7.28945285e-02},
   {-7.04661608e-02,-9.02998373e-02,-1.27734795e-01,-7.55826607e-02,
    -1.91461444e-02, 6.25012442e-02},
   {-1.14864655e-01, 3.29109244e-02, 1.78995691e-02,-1.02667421e-01,
    -5.59759922e-02,-1.52521104e-01},
   {-1.00718081e-01,-1.33386475e-03,-6.52158558e-02,-3.56523432e-02,
    -1.02668740e-01,-1.61119506e-01}},

  {{ 1.00440614e-01, 5.10233082e-02, 2.24974733e-02, 1.88739263e-02,
    -1.78610891e-01,-1.20616399e-01},
   {-2.37143356e-02, 1.96996033e-02,-1.05871074e-01,-9.86139029e-02,
     5.16206957e-02, 2.49642003e-02},
   {-8.57951194e-02,-1.42075762e-01,-1.38761267e-01, 1.19062383e-02,
    -3.56096700e-02,-4.43625189e-02},
   {-1.47088189e-02, 8.97310525e-02,-7.22325891e-02,-9.32320058e-02,
    -1.93356518e-02,-1.73635796e-01},
   {-1.97182000e-01,-1.78294536e-02, 1.67655759e-02, 1.63668096e-02,
     5.22416420e-02,-8.36006105e-02}}},


 {{{-1.11964062e-01,-2.70559341e-02,-3.21136415e-02,-1.31029934e-01,
     8.86023939e-02, 4.85418066e-02},
   {-4.01597023e-02,-2.81910356e-02,-1.25999842e-02, 1.12447897e-02,
     6.50665537e-02,-4.04027365e-02},
   {-1.22189224e-02,-3.59160714e-02,-1.43441141e-01,-8.34628344e-02,
     2.82672755e-02,-1.21278025e-01},
   { 2.00903765e-03,-1.74210537e-02,-4.68625091e-02,-1.15730733e-01,
     1.36315808e-01,-1.22873843e-01},
   {-6.36667130e-04,-4.42930125e-02,-1.27472028e-01,-1.76695198e-01,
     1.43691272e-01,-2.45042834e-02}},

  {{-2.85069961e-02,-6.86712787e-02,-7.37882406e-02,-9.78367310e-03,
     7.37585947e-02, 5.43136038e-02},
   { 8.60417560e-02,-2.81084403e-02,-1.53562099e-01, 1.78061370e-02,
    -5.56034185e-02,-3.09352297e-02},
   {-7.28018135e-02,-2.08243698e-01, 6.45219302e-03,-2.85272044e-03,
     4.36053053e-02,-2.63405368e-02},
   { 9.21250805e-02,-8.97314548e-02,-1.70980558e-01,-1.32616326e-01,
     3.13281850e-03,-1.97187901e-01},
   { 1.61899403e-02,-8.01778734e-02, 4.47048247e-02, 2.13296991e-02,
     4.90704812e-02,-1.29519776e-01}},

  {{-7.67206922e-02, 1.15678860e-02,-5.16689457e-02,-1.14503475e-02,
     9.42858309e-02, 2.32981034e-02},
   {-2.18916070e-02,-1.28557101e-01,-1.71764851e-01, 5.98167032e-02,
    -2.49897614e-02,-3.78114451e-03},
   {-1.02916621e-01, 4.27893586e-02,-1.07842632e-01, 1.18960053e-01,
    -1.63640857e-01,-1.60300538e-01},
   {-7.60624781e-02, 2.70566083e-02,-1.57091424e-01, 1.50219515e-01,
    -2.85031617e-01, 1.05287679e-01},
   { 2.65664048e-02,-8.64481479e-02, 4.90652993e-02,-2.76456568e-02,
    -2.07948983e-01,-7.98245147e-02}},

  {{ 6.62882179e-02, 1.05045930e-01, 7.49600902e-02, 8.89687464e-02,
    -4.56440002e-02,-1.38343900e-01},
   {-1.03531256e-01,-2.85300780e-02,-7.78909847e-02,-3.42607051e-02,
     1.41206071e-01, 3.80909094e-03},
   {-8.32368713e-03, 1.35556713e-01,-1.49194479e-01, 8.92044455e-02,
    -4.62198444e-02,-4.18764949e-02},
   {-7.98247848e-03, 1.72057822e-02,-1.38516247e-01, 3.68732288e-02,
    -4.22836915e-02,-2.43705977e-02},
   {-4.38596793e-02,-6.54065460e-02,-3.30106681e-03, 2.49513835e-02,
    -8.71391520e-02, 2.61167232e-02}},

  {{-6.23531044e-02,-2.45044250e-02, 7.04863667e-02, 1.38854221e-01,
    -8.21376070e-02, 1.82274487e-02},
   {-6.75819218e-02, 1.08502150e-01, 3.63195501e-02,-5.71686737e-02,
    -8.60948339e-02,-6.12216145e-02},
   {-7.59906396e-02, 1.09325260e-01, 1.60201136e-02,-4.93829139e-02,
    -4.97561023e-02, 3.51096950e-02},
   {-1.63670965e-02,-6.62022159e-02, 7.43966326e-02,-6.39484450e-02,
    -3.16253863e-02, 1.65296808e-01},
   { 2.19846219e-02,-6.51848391e-02, 1.38395861e-01, 4.91415039e-02,
    -1.02358945e-01, 8.78947135e-03}}},


 {{{ 8.26900154e-02,-1.05370721e-02,-5.18883057e-02, 6.46223277e-02,
     1.46938682e-01, 3.69663648e-02},
   { 7.84327537e-02, 6.88437372e-02,-2.13379916e-02,-5.63490801e-02,
     7.92808384e-02,-2.33466607e-02},
   { 6.41585737e-02,-7.15921596e-02,-5.63355908e-02,-7.25718960e-02,
    -1.10677615e-01,-7.35880435e-02},
   {-4.67923097e-02,-1.94355443e-01, 3.67772020e-02, 2.85030738e-03,
    -3.33149284e-02,-3.46219689e-02},
   {-1.23836264e-01,-2.11694767e-03, 7.01718554e-02, 7.94731230e-02,
     1.20851109e-02,-7.80438706e-02}},

  {{ 2.68612597e-02,-1.46956936e-01, 1.10234348e-02, 1.65280089e-01,
    -1.16727449e-01,-1.34105369e-01},
   {-8.85810554e-02,-5.61064035e-02, 9.74232480e-02, 3.88746820e-02,
     1.33708358e-01,-1.33026376e-01},
   {-1.94686949e-02,-1.53002843e-01, 7.73230791e-02, 6.33873194e-02,
     3.38968895e-02,-1.55298293e-01},
   { 2.62701754e-02,-6.82184398e-02,-1.21487929e-02,-3.80383059e-02,
    -4.36511450e-02,-2.07067803e-01},
   { 4.85601090e-02,-9.09227878e-02, 5.57250045e-02,-3.70001122e-02,
    -6.57972395e-02,-1.37427449e-01}},

  {{ 8.80939979e-03,-1.09256998e-01, 4.76013310e-02,-2.56466679e-02,
    -1.91238999e-01, 9.14937258e-03},
   {-1.10957533e-01,-1.28143117e-01, 1.12648666e-01,-6.94705173e-02,
    -2.01946378e-01, 5.53876068e-03},
   {-7.05293939e-02,-8.28696713e-02, 9.73271057e-02,-1.00193620e-01,
    -1.23342894e-01,-3.07421591e-02},
   {-9.55765769e-02, 5.29904990e-03, 2.29661576e-02,-7.07824305e-02,
    -8.66978094e-02,-1.15083307e-01},
   { 3.18167694e-02, 2.71864906e-02, 1.02108024e-01,-2.50899941e-02,
    -1.12647511e-01,-2.39120107e-02}},

  {{-1.91112980e-02, 4.14248705e-02, 1.61864683e-02, 4.43852916e-02,
    -8.01065937e-02, 3.55635136e-02},
   {-8.17915350e-02,-1.39319167e-01,-4.33927849e-02,-6.13552099e-03,
    -1.11263602e-04,-6.80330349e-03},
   {-2.17255913e-02, 2.78678574e-02, 1.75108742e-02,-1.03062212e-01,
    -7.51333088e-02, 3.29534337e-02},
   {-2.31762454e-02,-2.32951850e-01,-2.83940155e-02,-2.14321911e-01,
     3.79309431e-02, 8.90807286e-02},
   { 1.36617431e-02, 3.47482562e-02, 8.00223723e-02,-1.27867103e-01,
    -8.84805620e-02, 5.78400679e-02}},

  {{-4.14055847e-02, 5.96119501e-02, 4.42372933e-02, 1.31158412e-01,
    -9.73818153e-02,-4.13015857e-02},
   {-4.93054353e-02, 7.35146105e-02, 1.45297302e-02, 7.38023445e-02,
     5.75499237e-02, 8.13809708e-02},
   { 5.27711473e-02,-1.85582433e-02, 4.38371636e-02, 1.43982954e-02,
     5.28817810e-02, 5.04228510e-02},
   {-5.11890687e-02,-5.52358245e-03,-5.44543117e-02,-2.68220492e-02,
    -4.92872251e-03, 6.47918656e-02},
   {-1.23614803e-01,-6.80639595e-02,-6.31829947e-02,-1.07456539e-02,
    -1.00961551e-01, 4.64911498e-02}}},


 {{{ 2.17246660e-03,-1.17671899e-02,-1.38066355e-02,-1.09407734e-02,
    -3.82311493e-02, 1.42882625e-02},
   { 3.80354896e-02, 4.42977808e-02, 2.52326317e-02,-7.13690296e-02,
    -2.25119628e-02,-5.04900143e-02},
   { 7.81645160e-03,-4.45560776e-02, 8.24012235e-02, 4.42499407e-02,
    -9.37752053e-02,-7.50454366e-02},
   {-2.82429382e-02, 6.09877221e-02,-1.22225080e-02, 9.08939093e-02,
    -1.99564900e-02,-6.85062632e-02},
   {-6.56977445e-02, 6.33187667e-02,-5.46460301e-02, 3.20776589e-02,
     1.94874518e-02,-4.65064030e-03}},

  {{ 4.91779633e-02,-8.26555490e-02,-1.05686598e-01,-1.19905226e-01,
    -1.77713379e-01, 6.94934279e-02},
   { 6.37184903e-02, 6.38067648e-02,-8.72763246e-02, 2.59552207e-02,
    -7.34578595e-02, 2.40969192e-02},
   { 1.69237573e-02, 5.24666570e-02,-4.98130843e-02,-8.76179151e-03,
    -6.23951294e-02,-4.33499776e-02},
   {-3.71073969e-02, 1.59503277e-02, 8.27845000e-03, 1.14186548e-01,
    -1.49317712e-01,-3.82323121e-03},
   {-2.27893200e-02,-1.05955020e-01, 2.69924700e-02, 9.37627349e-03,
     9.89089161e-03, 1.88034661e-02}},

  {{-2.31508743e-02,-1.43219074e-02, 2.57820468e-02,-1.48985647e-02,
    -4.22853976e-03, 6.58743680e-02},
   { 8.16587284e-02, 1.18159791e-02,-7.49493539e-02,-1.14475694e-02,
     2.81572808e-02, 1.84456352e-02},
   {-1.05090383e-02, 5.34104742e-02,-5.90654090e-02,-7.61485174e-02,
    -1.40844658e-02, 1.41537234e-01},
   { 2.65545044e-02,-8.57524648e-02,-6.31641271e-03, 1.13147996e-01,
    -5.93242161e-02, 5.82420826e-02},
   {-3.53422575e-02,-1.03900313e-01, 2.52439585e-02, 2.25346517e-02,
    -2.37524912e-01,-2.11361535e-02}},

  {{ 2.96571907e-02, 5.68674915e-02, 7.72658885e-02,-9.95211899e-02,
    -2.80212443e-02,-1.04381524e-01},
   { 2.28801114e-03,-9.84214991e-02, 6.42377883e-02, 1.84669085e-02,
    -5.12210391e-02,-5.68721592e-02},
   { 1.26682624e-01,-1.11741640e-01,-2.15436728e-03, 3.29017341e-02,
    -3.82745489e-02, 5.24430685e-02},
   { 9.75749493e-02,-2.38193059e-03,-4.52494062e-02, 6.67771325e-02,
    -1.53185323e-01,-2.48916596e-02},
   {-1.25829861e-01,-5.73537759e-02, 3.51729547e-03,-9.92523655e-02,
    -2.17429280e-01,-5.96523769e-02}},

  {{ 5.45190535e-02,-7.08740428e-02, 1.03870466e-01,-2.06759162e-02,
     2.90222112e-02,-4.34858687e-02},
   { 1.56123638e-02, 8.08689892e-02, 7.95472562e-02,-3.01974849e-03,
    -2.06240378e-02,-1.24435954e-01},
   {-5.14800325e-02, 8.87949467e-02, 7.71615608e-03,-5.36962273e-03,
     5.35885319e-02,-1.86861046e-02},
   {-3.15939933e-02, 1.16077103e-01,-1.35469824e-01, 1.02625206e-01,
    -7.88057521e-02,-6.47526160e-02},
   {-1.26916721e-01, 7.87034780e-02,-2.70936012e-01, 3.14849541e-02,
    -5.07423095e-02,-3.15767294e-03}}},


 {{{ 1.31288722e-01,-4.76081576e-03,-4.82947938e-02,-3.39525044e-02,
     2.70513389e-02, 6.63683116e-02},
   { 2.14979537e-02, 1.92401186e-02, 3.54574919e-02,-2.82983407e-02,
     1.50189409e-02,-1.78031158e-02},
   {-1.16996363e-01, 6.01651240e-03, 3.34871537e-03,-3.53063121e-02,
     2.45006010e-02,-2.98063662e-02},
   {-2.53006332e-02, 4.24663424e-02,-1.24044523e-01,-2.66110580e-02,
     1.14590839e-01, 1.13898076e-01},
   { 5.67416027e-02,-4.18093167e-02,-4.17534150e-02,-5.81124425e-02,
     5.69340326e-02, 6.90290108e-02}},

  {{-1.42063484e-01,-9.44316462e-02, 1.09593552e-02,-1.91493228e-01,
     6.95897564e-02,-1.38391197e-01},
   {-1.89755872e-01, 1.37153551e-01, 2.87445560e-02,-7.58366426e-04,
    -5.42452559e-02,-1.28325269e-01},
   {-9.20158997e-02, 1.85009670e-02,-7.11120889e-02, 1.13701215e-02,
     3.13462913e-02, 3.16319652e-02},
   {-4.65980954e-02,-1.41703770e-01,-1.14062592e-01,-1.38832286e-01,
    -5.29434085e-02,-3.30064669e-02},
   { 7.03439489e-02,-5.47895618e-02, 1.08585684e-02,-1.24695726e-01,
     6.07422926e-03, 3.15154120e-02}},

  {{-1.56189650e-01,-2.20303610e-02,-2.11238824e-02, 2.78994255e-02,
     7.38454759e-02,-1.11587442e-01},
   {-9.47156250e-02, 2.91853677e-02, 1.12747364e-01, 6.03102599e-05,
     6.26176596e-02,-1.27686068e-01},
   { 4.62793149e-02,-1.53344795e-02,-6.66653588e-02,-1.42218871e-02,
     8.47750232e-02,-1.26030901e-02},
   {-4.02700864e-02, 3.40792933e-03, 6.54747412e-02,-6.23180047e-02,
     1.15210906e-01, 5.27046323e-02},
   {-8.62943381e-03,-5.80002740e-03,-6.44358918e-02,-4.42092754e-02,
    -1.13096289e-01,-1.10913187e-01}},

  {{-2.08709657e-01,-1.77251667e-01, 8.51376355e-03,-1.92161500e-02,
    -1.11939110e-01,-2.00954959e-01},
   {-5.13328090e-02, 2.08904911e-02, 1.12381451e-01, 2.40445267e-02,
    -8.60793516e-02,-3.08179148e-02},
   { 1.19919844e-01,-1.06014170e-01, 1.47228703e-01,-5.47681153e-02,
     7.37377632e-05, 9.70568880e-03},
   {-8.45239311e-02,-7.79834017e-02,-3.90531868e-02,-1.53419182e-01,
     1.63245872e-01,-5.19801974e-02},
   {-1.91323534e-02,-1.74611825e-02,-7.31568635e-02,-1.02034189e-01,
    -7.67463744e-02,-1.25122011e-01}},

  {{-1.83990791e-01,-9.09194276e-02,-6.93376455e-03,-4.48525287e-02,
    -2.35968940e-02,-8.53228942e-02},
   {-7.84211308e-02,-1.47698611e-01, 1.30452648e-01, 4.82606068e-02,
     5.08853123e-02, 3.20607536e-02},
   {-1.31286606e-02,-3.66370156e-02,-7.67294988e-02,-2.81761424e-03,
    -4.16842811e-02, 2.07521375e-02},
   {-1.69750869e-01,-4.83919075e-03, 7.66401142e-02,-1.09751128e-01,
     8.67750347e-02,-1.45993447e-02},
   { 2.05618003e-03,-6.53868020e-02, 3.50542627e-02,-4.87529226e-02,
     8.85648362e-04,-5.43934479e-02}}},


 {{{ 8.26409459e-02,-9.63293239e-02, 5.18513494e-04,-9.94589701e-02,
    -1.72556013e-01, 4.39302437e-02},
   { 4.67717573e-02,-1.07668892e-01,-6.34188727e-02,-9.87080708e-02,
    -1.54968247e-01, 4.85072657e-02},
   { 6.10575499e-03,-2.18230933e-02,-1.15526319e-01,-1.50113262e-03,
     7.15222880e-02, 6.48333207e-02},
   {-2.17377141e-01,-1.16069064e-01,-1.18555538e-01, 1.88922156e-02,
     2.85471026e-02, 1.94230024e-02},
   {-2.18427211e-01,-4.85069416e-02, 9.73455906e-02,-1.17170125e-01,
    -1.68678351e-02,-1.89569041e-01}},

  {{-1.02934860e-01,-1.17738657e-01,-9.46838260e-02, 1.39388219e-01,
     1.17389135e-01,-1.42714545e-01},
   {-3.78955808e-03,-1.02406174e-01,-3.72185707e-02, 1.78233117e-01,
     3.26592065e-02, 1.53548419e-02},
   {-2.17155833e-02,-1.59280881e-01, 4.46939804e-02,-4.75310870e-02,
     1.11151561e-01,-4.44089063e-02},
   {-5.34018241e-02,-1.07109070e-01,-8.14652070e-02, 2.36543790e-02,
     3.08387782e-02,-7.84628764e-02},
   {-1.42824829e-01,-4.44285609e-02, 3.19658555e-02, 3.67043056e-02,
     2.52778661e-02,-1.81417570e-01}},

  {{-4.67939042e-02,-1.00255050e-01, 6.71250224e-02,-5.39069436e-02,
    -5.04663140e-02,-5.44289425e-02},
   { 1.00395016e-01, 6.40706392e-03,-7.17984065e-02,-7.55233169e-02,
    -5.82190305e-02,-1.03421599e-01},
   { 8.08534846e-02, 6.67531863e-02,-3.96294855e-02, 4.03548889e-02,
     9.62113068e-02,-6.56631738e-02},
   { 6.29952028e-02,-8.66799057e-02, 9.30310190e-02,-5.40384054e-02,
    -2.23124232e-02,-3.76425721e-02},
   {-2.86971908e-02, 5.51059050e-03,-3.01312003e-02,-1.10552602e-01,
    -6.25701505e-04,-1.21938147e-01}},

  {{ 1.46658663e-02,-7.98178539e-02, 5.36388420e-02,-6.30187169e-02,
     1.28454836e-02, 9.47761256e-03},
   { 1.03964999e-01,-5.48406430e-02, 2.52926871e-02, 5.50495014e-02,
    -5.63590415e-02,-7.53995553e-02},
   {-1.92872100e-02,-1.51311487e-01,-2.76348628e-02,-1.10717542e-01,
     5.98302782e-02,-1.16488084e-01},
   {-8.23366418e-02,-4.83810194e-02,-1.01651087e-01,-5.12151420e-03,
    -5.14256917e-02,-1.73513312e-02},
   {-1.99221760e-01,-5.31131253e-02, 6.95635797e-03,-1.55390166e-02,
    -1.40027910e-01,-1.19243905e-01}},

  {{ 1.28657473e-02, 4.95055504e-02, 1.41390143e-02,-1.15838990e-01,
     5.27335070e-02,-4.68232632e-02},
   { 2.58859079e-02,-5.08830044e-03,-8.74739289e-02, 3.12950462e-02,
    -1.28859490e-01,-1.07192270e-01},
   {-2.52646152e-02,-1.47867754e-01,-2.62948368e-02,-1.81752648e-02,
    -1.20511584e-01,-8.49528760e-02},
   {-8.06276724e-02,-1.20024130e-01,-3.12989093e-02,-1.42664229e-02,
     2.84539466e-03,-1.01941779e-01},
   { 1.18550844e-01, 1.19105443e-01, 1.11202011e-02, 4.10948768e-02,
    -1.16012007e-01, 7.43489414e-02}}},


 {{{-1.99301075e-02, 2.25569610e-03, 6.95640445e-02,-1.42622933e-01,
    -8.44141766e-02, 1.09063335e-01},
   {-1.28935669e-02,-1.25664817e-02, 1.39520273e-01,-1.13251232e-01,
    -9.47470218e-02,-9.56629887e-02},
   {-3.45068313e-02,-3.87621820e-02,-7.71867707e-02,-1.17750853e-01,
    -8.15072209e-02,-1.91431671e-01},
   {-1.11645348e-01,-7.91925266e-02,-1.26319185e-01, 2.15345458e-03,
    -9.81662646e-02,-1.06265128e-01},
   {-6.95519615e-03, 1.37172462e-02,-1.49793372e-01,-3.08195967e-03,
    -1.04669541e-01,-1.44546762e-01}},

  {{-6.68283477e-02, 1.63961351e-02, 3.86986136e-02, 5.85286841e-02,
    -1.25617176e-01, 1.43720200e-02},
   {-1.89498514e-02, 1.24606229e-02, 4.87307422e-02, 1.51908407e-02,
    -1.15229189e-02, 3.74764800e-02},
   {-1.52555242e-01,-8.25162232e-02, 1.13761663e-01,-2.86102016e-02,
    -1.64995492e-01,-1.34712204e-01},
   {-1.18737901e-02,-1.05131552e-01, 9.14613754e-02,-5.95346615e-02,
     4.77737784e-02,-1.45160154e-01},
   { 3.40849124e-02,-4.88392115e-02,-1.33510485e-01, 5.27068637e-02,
    -8.62936154e-02,-5.04033677e-02}},

  {{-2.02964038e-01,-6.02147356e-02,-6.66471794e-02,-5.36761805e-02,
     8.24717060e-02,-1.26153186e-01},
   {-9.53766555e-02,-5.76131158e-02,-6.05869144e-02, 1.49112046e-02,
     1.45664468e-01, 2.92702261e-02},
   { 5.03833368e-02,-1.73065469e-01,-3.67349386e-02,-6.87118843e-02,
    -3.52926292e-02, 2.31122598e-02},
   {-6.97175562e-02,-8.10254440e-02, 8.69892612e-02,-1.24581911e-01,
     3.96455191e-02,-3.59081179e-02},
   { 6.85874373e-02,-4.50223088e-02,-4.39522937e-02,-1.34681892e-02,
    -1.06354989e-01,-1.15742803e-01}},

  {{ 4.87246439e-02,-8.06890503e-02,-5.77772409e-02,-5.10969684e-02,
     1.00751847e-01,-4.51305434e-02},
   { 1.00939507e-02,-1.03417560e-01, 1.95464697e-02,-1.63869798e-01,
     9.47155580e-02,-1.82106327e-02},
   { 7.41195157e-02, 3.38554988e-03,-7.62033015e-02,-9.36703682e-02,
    -2.60952171e-02,-7.41337314e-02},
   {-2.13929377e-02, 1.57143265e-01,-3.97659745e-03,-6.03403151e-02,
     1.15908275e-03, 7.46931657e-02},
   { 4.62593064e-02, 6.25022575e-02,-1.00094706e-01,-7.01482520e-02,
    -1.09276026e-02, 7.40688145e-02}},

  {{ 1.26237229e-01,-9.63753462e-02,-1.41212726e-02,-9.98193994e-02,
     1.10824476e-03,-6.61302209e-02},
   { 4.61613797e-02, 1.70377102e-02, 3.84904779e-02,-5.35070561e-02,
    -6.62529394e-02, 1.96787603e-02},
   { 5.64321550e-03,-2.41195429e-02, 3.90183507e-03,-2.71526147e-02,
    -4.96039391e-02,-5.97562641e-04},
   { 4.08765115e-02,-1.32402062e-01,-6.47822991e-02,-1.08871460e-01,
    -3.79769616e-02,-4.19222787e-02},
   {-2.05283146e-02,-3.08279451e-02,-3.69759537e-02,-7.28040338e-02,
     2.61948979e-03,-3.97324413e-02}}},


 {{{ 2.66080536e-02,-2.48505678e-02, 7.93261901e-02, 3.11751626e-02,
     7.07112402e-02, 4.32565734e-02},
   { 1.11617781e-01, 9.59001929e-02,-3.18734795e-02, 9.97049063e-02,
    -6.90861344e-02, 9.68285948e-02},
   {-1.08065471e-01, 5.17744869e-02,-1.60024375e-01, 2.31760200e-02,
    -2.80333851e-02,-1.75349321e-02},
   {-2.20069975e-01,-5.18401526e-02,-1.61481977e-01, 3.85293514e-02,
    -1.35983273e-01, 8.26528147e-02},
   {-4.98027280e-02, 1.48289818e-02,-3.93201634e-02,-4.53307815e-02,
    -9.08015110e-03, 1.12997778e-01}},

  {{-4.07615304e-02, 2.25552749e-02,-1.10691555e-01, 1.99353546e-02,
     1.24227449e-01,-1.17259137e-01},
   {-3.40998508e-02,-2.60421298e-02, 5.31353988e-02,-7.45894983e-02,
    -5.32320701e-02,-1.16485730e-01},
   {-2.63575204e-02, 1.43240869e-01, 7.19611719e-02,-1.46835044e-01,
     1.93762556e-02, 5.55322245e-02},
   { 8.74388218e-03,-6.17395304e-02, 7.97743648e-02, 2.45637409e-02,
    -2.92582531e-02, 7.26223178e-03},
   {-1.08144015e-01, 2.19518859e-02,-6.31727502e-02,-5.15914746e-02,
    -8.10181051e-02, 1.99730322e-02}},

  {{ 1.90001689e-02,-1.80318549e-01, 9.00499150e-02, 9.64697078e-02,
    -1.60651542e-02,-4.10597548e-02},
   {-5.57571128e-02,-8.80313516e-02, 1.54052004e-02,-7.30629861e-02,
    -2.80148983e-02,-1.15594886e-01},
   { 3.27419043e-02,-5.39970212e-02, 9.71140191e-02,-4.11427505e-02,
    -8.59438032e-02, 3.04722674e-02},
   { 1.25197366e-01,-1.32428885e-01,-1.03680780e-02,-4.13139723e-03,
    -1.28917187e-01, 1.56299584e-02},
   { 2.11190898e-02,-1.40581831e-01, 3.17300297e-02,-7.92809650e-02,
    -7.75120258e-02, 5.02538271e-02}},

  {{-3.44856977e-02,-2.78024245e-02, 8.79466459e-02, 6.29102290e-02,
     8.69037304e-03,-1.52213126e-01},
   {-6.75265267e-02,-1.18521854e-01, 2.13831812e-02, 8.84082541e-02,
    -2.79526711e-02,-1.25838732e-02},
   {-2.60579567e-02, 5.36241531e-02,-6.01759995e-04, 9.93455723e-02,
    -2.80116592e-02,-1.67838275e-01},
   {-5.13880746e-03,-1.48477644e-01, 1.38500407e-01,-2.75234170e-02,
    -7.76341558e-02, 4.51334529e-02},
   { 3.11789680e-02,-4.28721458e-02,-1.16130263e-01,-4.97358404e-02,
    -1.09400265e-02, 7.51451999e-02}},

  {{ 1.09111993e-02, 1.58899510e-03, 2.02175062e-02, 2.20671743e-02,
    -2.65253764e-02, 7.37285893e-03},
   { 6.55627549e-02,-7.99950063e-02, 6.25847578e-02, 5.40205650e-03,
    -2.56381035e-01,-9.13553461e-02},
   {-1.69431809e-02, 1.89265460e-02,-2.58710384e-02, 7.24071711e-02,
    -1.89142361e-01,-1.50426865e-01},
   {-4.98866998e-02, 2.88275294e-02, 5.31795621e-02,-3.86422090e-02,
    -9.77091771e-03, 2.07044110e-02},
   {-2.08972823e-02, 1.59726869e-02,-4.52433415e-02,-6.10460415e-02,
     7.15412050e-02, 5.23117110e-02}}}};
float C3_biases[16] =
{-0.04229238, 0.09872084,-0.17328079,-0.0425595 ,-0.03794798,-0.14592057,
  0.02109264,-0.06975064,-0.03060249,-0.09822123,-0.05736132,-0.14011724,
 -0.00615005, 0.02407394,-0.0145465 ,-0.10026223};
float F5_weights[120][400] =
{{ 8.76444206e-02,-1.02105610e-01,-1.50877848e-01,-1.28658891e-01,
   1.81721449e-02,-6.61696196e-02, 5.53717948e-02,-3.27865705e-02,
  -7.72528797e-02, 5.72458468e-02,-2.95832902e-02, 2.97243260e-02,
   2.35805660e-03,-6.84182793e-02,-9.69168916e-02,-7.04858750e-02,
   1.95827894e-02,-8.90744105e-02,-1.25051001e-02,-1.20298959e-01,
   3.23969461e-02, 5.73812723e-02,-8.34250590e-04,-3.44107002e-02,
  -2.00887658e-02, 2.90622078e-02,-1.01847798e-01,-4.39492986e-02,
  -5.03133424e-02,-1.04911178e-01,-1.01702303e-01,-7.02442788e-03,
  -9.83747914e-02,-5.32265790e-02,-9.55055952e-02, 5.81073314e-02,
   6.49971589e-02, 2.40090284e-02, 1.51955420e-02,-3.76191512e-02,
  -2.35182680e-02,-1.21232890e-01,-4.67090085e-02, 3.20193470e-02,
  -5.56911342e-02, 7.61439130e-02, 1.62054729e-02,-4.44894359e-02,
   7.26009607e-02, 2.56292336e-02, 6.10863529e-02, 6.41405629e-03,
  -4.28113490e-02,-3.50096226e-02, 9.33808461e-02,-1.04878768e-01,
  -9.09067988e-02, 7.22512156e-02, 3.91336158e-02,-3.00554633e-02,
  -8.68102312e-02,-9.72129181e-02, 8.04185420e-02,-9.33887810e-02,
  -3.75613011e-02,-4.68907654e-02, 1.31868105e-02, 3.47803789e-03,
  -5.76683618e-02,-6.60607070e-02,-6.36169314e-02,-1.01336733e-01,
  -9.77058709e-02, 6.85554072e-02, 4.85198684e-02, 6.18584864e-02,
  -1.29715785e-01, 2.49237381e-03,-2.36000046e-02,-1.43481242e-02,
  -7.52036124e-02,-2.07903869e-02, 2.26557311e-02,-6.67373165e-02,
  -8.98209661e-02, 3.99141908e-02, 8.03947672e-02, 4.70446199e-02,
   3.13776024e-02,-7.93969482e-02, 2.80445684e-02,-9.06606913e-02,
  -1.01533443e-01,-8.44487175e-02,-1.09118853e-04, 7.79694691e-02,
   7.74010792e-02, 2.25768555e-02,-7.88294896e-03,-3.20688784e-02,
   4.29508574e-02,-1.20809995e-01,-8.27402994e-02, 8.06394964e-02,
  -6.96166828e-02, 6.88635185e-02, 6.92376420e-02, 1.28404070e-02,
  -4.60494831e-02, 1.16467457e-02, 8.63981023e-02, 7.86527060e-03,
  -8.97616223e-02,-9.12939012e-02,-3.38090546e-02,-3.47635597e-02,
  -9.31611061e-02,-5.73983900e-02,-5.55733219e-02,-1.48391966e-02,
  -4.18121517e-02, 6.49393499e-02,-1.90502740e-02,-7.87082762e-02,
  -5.66206835e-02,-3.88981141e-02, 6.83129653e-02, 6.20162785e-02,
   5.38513027e-02, 3.92296128e-02,-8.21475163e-02, 2.29390375e-02,
  -8.39237645e-02,-3.33598107e-02,-1.01821110e-01, 6.51515555e-03,
  -8.43330845e-02, 2.05861814e-02, 7.12659732e-02, 5.40747344e-02,
   7.44071826e-02, 2.44747810e-02, 5.77071048e-02, 3.65460925e-02,
  -6.74733073e-02, 5.44872805e-02,-3.72070372e-02, 7.63265863e-02,
   5.48244920e-04,-7.50355376e-03, 9.37098637e-02,-6.00222312e-02,
  -5.05841933e-02, 4.43807989e-02, 7.85030127e-02,-9.43622664e-02,
  -3.95476706e-02, 2.89042704e-02, 3.37548531e-03, 7.35442191e-02,
  -8.93783569e-02,-7.30259717e-02,-3.92284133e-02,-3.16702225e-03,
  -6.86049089e-02, 2.60965806e-02,-6.64310902e-02,-1.13937715e-02,
  -6.28668368e-02,-1.16594359e-02, 5.59427030e-02,-5.22110462e-02,
   8.63426477e-02, 2.18508467e-02,-7.36570731e-02,-5.15121147e-02,
  -8.26753825e-02,-4.17147912e-02, 5.84707130e-03,-3.19657251e-02,
   4.88303937e-02, 6.20053969e-02, 8.03420469e-02,-1.83246676e-02,
  -3.29523571e-02,-3.20932791e-02,-3.66105102e-02, 7.40935560e-03,
   4.44501527e-02,-2.97469087e-02,-4.69285250e-02,-6.01443574e-02,
   1.49755273e-02,-3.27640586e-02,-9.55503210e-02,-7.02309161e-02,
   2.49632932e-02,-7.58282393e-02, 3.78733985e-02, 6.44639432e-02,
   3.79548445e-02, 6.16330616e-02, 8.76084492e-02,-1.58504564e-02,
  -4.01981287e-02,-4.38929722e-03, 2.31758095e-02, 9.84485894e-02,
   5.74872904e-02,-9.15328413e-02,-1.20214902e-01,-3.84423509e-02,
  -1.03434570e-01, 6.75179511e-02,-8.17192718e-03,-6.29089028e-02,
   3.65161034e-03,-7.21512735e-02, 5.98435402e-02, 4.87033203e-02,
  -1.74154397e-02,-1.62321720e-02, 9.15947184e-02,-7.09755579e-03,
  -2.41837632e-02, 2.99511314e-03,-5.40822931e-02,-3.18371579e-02,
   8.52871761e-02,-5.69167063e-02,-5.21468744e-02, 6.59353063e-02,
  -1.03172719e-01, 4.44797128e-02, 7.10960478e-02,-7.22826645e-02,
   3.22635844e-02,-5.47048375e-02, 1.19722169e-02, 2.27159653e-02,
   7.76369348e-02,-8.86643305e-02,-1.65008102e-02,-3.53927687e-02,
   4.62067276e-02,-2.91657951e-02,-5.86971082e-02, 1.69317219e-02,
  -2.00727605e-03, 4.13003787e-02,-9.62498263e-02, 2.77070981e-03,
   6.18650429e-02,-1.08012371e-01, 7.41117522e-02, 5.91014773e-02,
  -9.38652828e-02,-9.07731727e-02,-4.95020412e-02, 1.83243789e-02,
  -1.06056727e-01,-1.92852002e-02, 5.74786402e-03,-1.75179858e-02,
  -5.92966527e-02,-9.93899405e-02, 7.01642185e-02,-5.01133017e-02,
  -1.24867698e-02,-3.51796374e-02,-4.87628020e-03,-2.50418279e-02,
  -9.18646902e-03,-6.34885281e-02,-3.06183267e-02, 4.28108089e-02,
  -7.95036405e-02,-7.60139078e-02, 3.19671957e-03, 2.51223426e-02,
   6.07868135e-02,-1.51649546e-02, 3.96018438e-02,-3.61487865e-02,
   7.47038424e-02, 1.95727460e-02,-3.49196009e-02,-6.05544336e-02,
   6.26841933e-02, 2.01201607e-02,-5.57614118e-02, 6.98702261e-02,
  -4.12441641e-02,-1.07681416e-01,-6.82802722e-02,-9.17166546e-02,
  -1.93331726e-02,-5.96851781e-02, 7.55139887e-02,-4.55013476e-02,
  -3.56266908e-02,-9.90898833e-02, 3.09719015e-02,-1.02248430e-01,
  -8.53443742e-02,-1.02707624e-01, 2.73999367e-02, 1.18920226e-02,
  -2.64731087e-02,-1.14140347e-01, 4.09534983e-02,-4.93188724e-02,
   4.17013839e-02,-4.86830212e-02,-6.98029390e-03,-5.43791503e-02,
  -4.00028490e-02, 4.27564196e-02, 2.64836289e-02,-1.02686025e-01,
  -4.47008908e-02, 6.14447854e-02,-1.30169820e-02,-9.70750153e-02,
  -8.01594779e-02,-2.57774405e-02, 1.23607488e-02, 2.09564827e-02,
  -8.25612992e-02,-6.59004822e-02, 2.68452372e-02, 3.47165279e-02,
  -7.15935379e-02,-7.79034644e-02, 7.04157576e-02,-8.81360378e-03,
   8.37466717e-02,-3.45266648e-02,-5.53756654e-02, 8.73748139e-02,
  -7.96612352e-02,-1.02021568e-01, 4.53968197e-02,-6.57460419e-03,
  -2.43252553e-02,-8.06577057e-02,-3.55860293e-02, 2.06731297e-02,
  -3.43095772e-02,-7.88553730e-02,-1.00971689e-03, 9.44609568e-02,
   6.35289624e-02,-1.85692310e-02, 7.12565705e-02, 6.88723624e-02,
  -8.40109587e-02, 4.02210802e-02,-1.01457365e-01,-4.10272926e-02,
   8.21981132e-02,-1.13841422e-01, 4.89234887e-02, 2.20889915e-02,
  -4.82459292e-02, 3.75346839e-02, 4.10519391e-02, 2.94387657e-02,
   3.89775671e-02, 9.39897001e-02,-1.44713804e-01,-1.10668637e-01,
  -1.06430925e-01,-4.52454574e-02,-6.67129084e-02,-6.23365231e-02,
  -8.24537352e-02,-1.00721933e-01, 2.09805295e-02,-4.75231782e-02,
   4.71793860e-03, 8.85707438e-02, 6.04085289e-02, 2.21654195e-02,
   3.11689489e-02,-1.08932018e-01,-1.29638240e-01,-1.50385953e-03,
   7.11921230e-02,-1.04807183e-01,-6.50385022e-02,-1.26134619e-01,
   1.23881614e-02, 2.98471469e-02,-9.73848030e-02,-2.22243685e-02,
   4.11041342e-02, 4.17170860e-02,-1.05434246e-01,-4.94155437e-02},
 {-5.24547771e-02, 2.87958253e-02,-1.39256358e-01,-1.33276135e-01,
  -1.14091806e-01, 4.46154028e-02,-8.69461894e-03,-5.69654442e-02,
   3.82399606e-03,-3.28447670e-02, 3.19611467e-02, 2.00700313e-02,
  -3.57495062e-02, 6.98596612e-02,-2.44516768e-02,-4.25042845e-02,
  -1.11282319e-01, 1.53680984e-02,-1.77332073e-01,-8.68286043e-02,
   2.23262850e-02, 3.16138566e-02, 1.66497044e-02,-9.83105507e-03,
  -1.27112895e-01,-8.31966326e-02, 9.31759849e-02,-6.11656941e-02,
  -1.81614179e-02,-9.43963379e-02,-7.15934718e-03,-3.62430736e-02,
  -3.17352191e-02,-1.78001132e-02, 2.18361174e-03,-5.64553700e-02,
  -4.60865684e-02, 2.65061371e-02, 7.79170766e-02,-7.37747401e-02,
   1.32989511e-02,-5.83785251e-02, 5.32481782e-02,-8.65946990e-03,
  -8.89188722e-02, 4.20799367e-02,-7.54338354e-02, 6.29482791e-02,
   7.90625960e-02,-1.13908045e-01,-7.84179047e-02, 7.83467852e-03,
  -3.50299180e-02,-7.60631487e-02,-6.36722893e-02,-1.25688985e-01,
   6.76873848e-02,-9.48321819e-02,-1.37170747e-01, 8.44815820e-02,
  -7.38210604e-02,-7.62646049e-02,-1.13140605e-01,-9.57847536e-02,
   1.15407107e-03,-2.52889283e-02,-6.12020791e-02,-7.65190795e-02,
  -2.06918386e-03,-8.70269686e-02,-1.35736674e-01, 8.54535326e-02,
   4.84231263e-02,-8.77176300e-02, 2.26811785e-02,-1.07035838e-01,
  -5.97067438e-02,-5.10731079e-02, 9.40055624e-02,-1.09454505e-01,
  -6.82737529e-02, 1.59447622e-02, 8.09673074e-05,-4.30123769e-02,
  -4.36900109e-02,-1.31120354e-01,-5.02042472e-02,-4.42937911e-02,
   6.56192899e-02, 2.73259934e-02,-7.82247409e-02, 5.84146753e-02,
   6.43911399e-03, 3.96125838e-02, 9.12561640e-02,-1.66354552e-02,
   2.07050256e-02, 2.36355998e-02,-8.89209807e-02, 1.22859655e-02,
  -5.13774157e-03, 3.04268859e-02,-4.45491225e-02,-1.13858730e-01,
   1.46166114e-02,-3.10836383e-03, 3.06730010e-02,-1.00475810e-01,
  -1.13040157e-01, 4.83955741e-02, 2.51045860e-02,-4.59513627e-02,
   7.70354494e-02, 3.21713910e-02,-5.66147640e-02, 8.11740607e-02,
   5.44749340e-03,-9.30375904e-02,-3.76850963e-02, 4.29629013e-02,
   7.43165463e-02,-1.10036410e-01,-1.11370653e-01,-7.07644096e-04,
   8.25179145e-02,-4.57947664e-02,-8.21541343e-03, 5.65111712e-02,
   6.06532320e-02,-1.01601228e-01, 6.38577864e-02,-1.77803673e-02,
  -2.55471170e-02,-4.29925099e-02,-5.89129999e-02, 9.64961573e-02,
   3.26322354e-02,-1.39539503e-02, 7.99156651e-02,-1.02447964e-01,
  -7.69950449e-02, 1.77864160e-03,-6.84914440e-02,-2.20099892e-02,
  -5.20158513e-03, 1.40974708e-02,-3.32850814e-02,-9.97195318e-02,
  -5.97102493e-02,-7.88515955e-02, 7.47927651e-02,-8.66987035e-02,
   6.75299857e-03, 4.98585077e-03, 1.35902443e-03,-5.55561222e-02,
  -8.16507861e-02,-6.29191250e-02,-1.06912553e-01, 1.00819804e-01,
  -4.31355229e-03,-4.49465103e-02, 1.43056763e-02,-2.06549075e-02,
  -1.03856444e-01,-8.89000483e-03,-5.13273627e-02,-9.20752659e-02,
  -1.91322453e-02,-9.97785777e-02,-4.18458842e-02,-4.26056013e-02,
   3.59172560e-03,-8.48981515e-02, 1.98423248e-02, 3.85124609e-02,
  -4.09216397e-02,-6.03457876e-02,-6.51774555e-02,-3.84496003e-02,
  -1.08724564e-01,-5.20901345e-02,-2.38708053e-02,-6.70340806e-02,
   8.00505131e-02,-6.14492521e-02, 5.25900275e-02,-7.04700202e-02,
  -2.84719691e-02, 6.35871515e-02, 1.20568834e-02,-4.80045155e-02,
   2.57620635e-03,-5.96997477e-02,-5.37453368e-02,-8.20304826e-02,
   4.68641613e-03,-6.90769330e-02,-5.71293980e-02,-1.90217365e-02,
   7.69497901e-02,-1.00945167e-01, 4.30988483e-02, 5.56961782e-02,
  -7.82949943e-03,-2.23639943e-02, 3.60219628e-02, 3.27333361e-02,
  -7.33344778e-02,-6.12575673e-02,-1.44342646e-01,-1.14419842e-02,
   3.49244997e-02,-4.27474007e-02,-4.63347174e-02,-3.70271318e-02,
  -3.11309043e-02,-6.99735954e-02,-2.78767422e-02,-3.90016921e-02,
  -1.49360225e-01, 4.46350425e-02,-3.84084061e-02, 9.77129675e-03,
   1.01446714e-02, 8.73301551e-02,-1.24668755e-01,-8.57002810e-02,
  -7.69759268e-02, 2.02619992e-02,-6.34013712e-02,-1.15061216e-01,
   7.59328995e-03,-4.37444858e-02, 9.94880274e-02, 6.83804275e-03,
  -6.71624988e-02,-1.62075623e-03, 5.47455736e-02, 8.15536901e-02,
   2.86786295e-02,-2.77057867e-02,-1.80730492e-01,-1.14628494e-01,
  -7.22387508e-02,-6.17593713e-02,-1.34467527e-01,-1.04446104e-02,
  -1.01860434e-01, 3.06998063e-02, 7.41008222e-02, 3.31625268e-02,
  -7.46680200e-02, 3.29645015e-02,-7.73895308e-02,-8.55581462e-02,
  -1.98356397e-02, 6.97505698e-02, 1.10020535e-02, 4.19250987e-02,
   1.03161871e-01,-6.51875585e-02,-3.03810704e-02,-1.06642013e-02,
  -5.48326373e-02, 5.54963341e-03,-1.05771786e-02,-4.31976058e-02,
  -9.10717174e-02, 1.67012569e-02, 7.00471504e-03, 4.58544120e-02,
  -6.24255948e-02, 5.84105663e-02, 6.00588843e-02, 4.84063253e-02,
  -2.50832066e-02, 5.14801964e-02, 2.09845025e-02,-4.21780422e-02,
   6.14839867e-02,-5.16654402e-02,-8.78322199e-02, 4.27672900e-02,
  -6.73887804e-02, 6.91873021e-03,-6.62564486e-02, 2.51574051e-02,
  -6.52213618e-02,-4.69435975e-02, 7.22190738e-02,-7.34766573e-02,
  -1.01953566e-01,-1.10168971e-01,-6.38059303e-02, 7.71705732e-02,
  -1.09825365e-01,-2.85276677e-02, 3.36725973e-02,-5.12049161e-02,
   1.23892641e-02,-4.88381721e-02,-4.01496887e-02, 3.89607176e-02,
   4.85249907e-02, 1.76772755e-02, 5.04247993e-02,-9.16208476e-02,
  -4.49536555e-02,-8.37645903e-02, 4.03570905e-02,-2.71868221e-02,
  -2.47150343e-02, 5.10908104e-03, 6.67385086e-02, 4.27953191e-02,
  -5.86299933e-02,-9.21283849e-03, 3.77027504e-02,-4.98760641e-02,
  -5.42785525e-02, 5.13334461e-02,-4.76111956e-02, 5.75178340e-02,
  -8.27851966e-02,-5.39328111e-03,-8.67702216e-02, 3.05195507e-02,
   2.33420692e-02,-1.18478343e-01,-3.69892120e-02,-1.28785014e-01,
   9.97288078e-02, 7.97115266e-02,-7.21084401e-02,-8.17236006e-02,
  -1.06863752e-01, 1.86380167e-02, 6.23650402e-02, 4.38421480e-02,
   2.81518493e-02,-1.04754999e-01, 7.18165711e-02,-3.43705490e-02,
   1.77655574e-02,-2.43222024e-02,-7.42066652e-02,-9.50100124e-02,
  -6.92968294e-02,-2.46412214e-02,-1.54348211e-02,-1.77659113e-02,
   3.48083042e-02, 4.95149083e-02,-1.15674831e-01, 7.39677027e-02,
  -7.94810301e-04,-6.00888282e-02, 7.39395022e-02,-6.45970926e-02,
  -3.65309902e-02, 3.25460136e-02,-7.86278397e-02,-3.95254567e-02,
  -5.13035664e-03,-1.02889732e-01,-6.66271970e-02,-4.57631331e-03,
   2.96885446e-02, 8.82751867e-02,-1.17791425e-02, 5.74878417e-03,
   2.72739399e-02,-1.70482118e-02,-1.14366710e-02,-5.44522777e-02,
  -6.86134864e-03,-6.40482083e-02,-1.78818870e-02, 5.75978048e-02,
   5.94045594e-02,-1.11517213e-01,-3.28133069e-02,-5.12251370e-02,
  -2.91672889e-02,-1.96267888e-02,-1.30861774e-02, 5.29338196e-02,
  -5.21696061e-02,-3.59929092e-02, 7.85456523e-02,-1.64768659e-02,
   1.19226109e-02,-1.07754186e-01,-1.08404540e-01,-6.57666028e-02,
   3.67828496e-02, 9.24030319e-02, 8.01214576e-02,-3.37634585e-03},
 {-5.85042275e-02,-7.77775645e-02,-8.64975676e-02,-9.21601255e-04,
  -7.47806728e-02,-1.26378760e-01,-7.46438578e-02,-9.26311389e-02,
  -4.98979576e-02,-6.73732013e-02, 3.42116244e-02, 2.75952630e-02,
  -1.54795393e-01, 7.08393082e-02, 4.39614914e-02,-6.40728921e-02,
   2.28955364e-03, 2.06268318e-02,-1.35048196e-01, 2.99365111e-02,
  -2.86401995e-02, 1.05577670e-01, 4.30043824e-02, 3.20868120e-02,
  -1.13130696e-01,-3.89929973e-02, 4.33679074e-02,-2.86966469e-02,
  -2.79020909e-02,-2.27489583e-02, 2.63156388e-02, 1.05150752e-01,
   1.52771343e-02,-8.40412453e-02,-1.06388777e-01, 6.85174763e-02,
  -3.87867801e-02,-1.30785890e-02, 1.36868488e-02, 8.84228665e-03,
  -9.16069821e-02,-2.23820418e-01,-4.40416969e-02,-2.66670231e-02,
  -6.07483238e-02,-5.85293360e-02, 8.01433623e-02,-5.96511923e-03,
   8.28008354e-02,-2.00943314e-02,-6.41804338e-02,-5.43814451e-02,
  -1.02494247e-01,-2.47860327e-02,-6.08238019e-03, 5.22469915e-02,
   5.51953614e-02,-6.07302487e-02, 7.38657266e-03,-1.04065277e-02,
   1.25956461e-02,-7.80330822e-02, 9.24071297e-02, 7.53331557e-03,
   4.31189872e-02, 2.02385951e-02, 2.06909448e-04, 3.82430409e-03,
   8.31627846e-03,-5.18431701e-02, 8.60607103e-02, 2.64567230e-02,
   1.70862004e-02,-3.91641706e-02,-9.19187739e-02,-1.40325306e-02,
  -1.19893774e-01, 8.71982947e-02, 9.48245544e-03,-1.44206202e-02,
   9.68485028e-02,-1.49627300e-02, 1.54573126e-02,-3.29355039e-02,
  -9.36866924e-02,-1.28833398e-01,-8.49929929e-04, 3.35898846e-02,
   2.12914962e-02,-8.64973441e-02, 1.42769795e-02,-5.10477498e-02,
   3.37771550e-02,-5.02458103e-02, 7.62759000e-02,-6.76073730e-02,
  -6.57622218e-02,-3.82299721e-02,-7.64920786e-02,-1.01410948e-01,
   5.66813797e-02,-7.28444308e-02,-1.11830465e-01, 4.86216731e-02,
   2.93595120e-02,-6.36304170e-02, 7.42446911e-03,-3.87026370e-02,
   6.19830303e-02,-9.21246111e-02,-2.46629845e-02,-7.92222917e-02,
  -1.25701025e-01,-5.00792786e-02,-2.26106681e-02, 5.26940264e-02,
   6.46388456e-02,-3.61804068e-02,-8.76704231e-02,-1.31257281e-01,
  -9.54470113e-02,-1.79455895e-03, 6.56313598e-02, 6.72426948e-04,
  -1.08046077e-01, 2.97957808e-02, 5.79882078e-02,-9.24218446e-02,
   7.65806064e-02, 3.93870473e-02,-6.52982891e-02, 1.35687841e-02,
  -5.81999496e-02, 2.18734145e-02, 8.80318806e-02,-5.58609478e-02,
   1.75510403e-02,-8.99108220e-03,-9.03807506e-02, 5.21859713e-02,
   2.14307755e-02, 2.40836274e-02, 6.84124082e-02,-5.85319921e-02,
  -5.61623927e-03,-4.68692817e-02,-8.02046210e-02,-5.68257831e-02,
  -3.33422534e-02, 3.86912413e-02, 6.51643202e-02,-8.60725567e-02,
   5.82359172e-02, 1.57373641e-02,-1.21398479e-01,-8.88584182e-02,
   1.36468738e-01,-9.49169621e-02,-3.37798297e-02,-7.48470277e-02,
   5.00082597e-02, 4.98048142e-02,-6.92311674e-02,-6.33446053e-02,
  -4.16599810e-02,-1.36343256e-01, 6.74477369e-02, 6.62880242e-02,
  -1.25576228e-01,-6.86710514e-03, 1.92795154e-02,-2.94784661e-02,
   3.60044539e-02, 5.40442988e-02, 8.22305381e-02,-6.14606999e-02,
  -4.22873646e-02,-1.16927311e-01,-6.06843159e-02, 4.55145165e-02,
  -8.71342346e-02, 7.66397594e-03,-1.09039493e-01, 6.78871870e-02,
   1.73447169e-02, 4.55266684e-02, 1.68991517e-02, 1.67547874e-02,
  -6.16330877e-02, 9.12165567e-02, 6.83475882e-02,-9.26129222e-02,
   4.19788249e-02, 1.28295887e-02,-1.33153191e-02,-4.45885435e-02,
  -4.80378978e-02,-1.31741136e-01,-9.21578147e-03,-6.99042976e-02,
  -3.13463424e-05,-3.80739979e-02, 8.41459781e-02,-1.38891771e-01,
   3.25581059e-02,-3.98849091e-03,-1.10015914e-01, 8.35660696e-02,
  -1.06244192e-01, 9.22410786e-02,-7.12717175e-02,-1.03030600e-01,
  -1.53449094e-02, 8.70645884e-03,-1.12947024e-01, 8.12187674e-04,
  -5.95895536e-02, 5.44455536e-02,-9.44868252e-02, 4.47180085e-02,
  -5.35994060e-02, 7.83061087e-02, 8.54886137e-03,-2.42985133e-02,
  -1.08091652e-01, 9.81561467e-02,-9.81717557e-02,-2.62397695e-02,
   8.07967931e-02, 8.24967623e-02, 2.83171311e-02,-1.76374689e-02,
  -6.64108694e-02,-4.74945568e-02,-8.96832645e-02,-1.18184939e-01,
  -1.97466761e-02, 8.74395855e-03, 1.02678262e-01, 8.17337632e-02,
  -1.58729423e-02, 8.86561200e-02,-1.20938480e-01,-2.30728332e-02,
   8.84659775e-03,-6.83351010e-02, 7.06694201e-02,-7.96309784e-02,
  -1.18882060e-01, 8.13686773e-02, 8.44569430e-02,-6.26912042e-02,
  -7.80770406e-02,-2.84840632e-02, 8.55836049e-02,-5.49414428e-03,
   9.62028801e-02, 1.25124186e-01,-4.47339974e-02, 5.98939210e-02,
  -6.69264719e-02, 5.20863272e-02,-1.04187436e-01,-5.79672270e-02,
  -5.07076979e-02,-1.26316817e-02, 4.86035869e-02,-9.05509517e-02,
   8.51322636e-02, 6.08450621e-02, 2.11697984e-02,-9.54601020e-02,
  -5.01652248e-03,-6.60776794e-02,-1.07922731e-02, 5.91752604e-02,
  -2.86991503e-02,-7.21908584e-02,-6.86329678e-02,-7.88214616e-03,
   6.16934039e-02,-1.11149058e-01,-1.12024896e-01,-2.91997548e-02,
   6.00531101e-02,-2.26748846e-02, 7.18632191e-02, 3.77527438e-02,
  -1.05151512e-01,-4.92201783e-02,-3.80932470e-03,-7.04004019e-02,
  -1.03518531e-01, 3.95237915e-02, 6.43707579e-03,-2.23848168e-02,
  -1.00142367e-01, 1.37610203e-02,-2.78436001e-02,-2.42689019e-03,
   1.92298237e-02,-8.77316203e-03, 2.42578592e-02, 1.14563346e-01,
  -1.00146070e-01, 3.99035662e-02,-2.47144267e-01, 3.82517204e-02,
  -8.78583118e-02, 7.89381713e-02,-7.66147906e-03, 3.31174210e-02,
   5.33014424e-02, 6.03437200e-02,-8.11838657e-02,-2.59794686e-02,
   3.67553532e-02, 1.00233205e-01, 9.20897573e-02, 5.79060018e-02,
  -8.34994912e-02,-2.02793647e-02,-3.91423292e-02,-2.57976614e-02,
  -9.21816900e-02,-3.58260833e-02,-1.00943878e-01,-1.11459769e-01,
  -8.17750916e-02,-2.27126777e-02,-9.17927325e-02,-4.74435557e-03,
   7.94556439e-02,-2.94794720e-02,-8.66814181e-02, 2.86773276e-02,
  -4.01909836e-02, 6.97029531e-02,-5.18300124e-02, 2.13574283e-02,
   8.81471261e-02, 3.19344886e-02,-4.59050722e-02, 3.33606303e-02,
  -1.13296941e-01, 1.39451250e-02,-8.45205784e-02, 4.39114720e-02,
   2.27771653e-03, 8.32855552e-02, 8.90437365e-02,-2.86609512e-02,
  -9.01249796e-02,-5.04267290e-02, 9.62333083e-02, 3.96768600e-02,
   7.67941400e-02,-9.34425890e-02, 3.28633375e-03, 4.81306314e-02,
   8.94757211e-02, 2.13715900e-02,-5.92187457e-02, 7.68921375e-02,
  -3.02436985e-02,-1.10998981e-01,-4.86777201e-02,-2.40669064e-02,
   5.04367091e-02,-4.53602821e-02,-7.86524341e-02, 7.03840256e-02,
   1.23310558e-01, 8.47547129e-02, 2.49542110e-02, 3.66855972e-02,
   5.39163537e-02,-8.55271891e-02,-1.03596628e-01,-5.27931824e-02,
   5.08028502e-03, 2.23025517e-03,-8.65979195e-02,-8.07811096e-02,
  -1.22351505e-01,-7.79478028e-02,-1.30061775e-01,-1.13824129e-01,
   5.82309179e-02,-8.24434757e-02, 8.72888118e-02, 2.95930244e-02,
   1.51296798e-02,-3.24257948e-02, 7.20479190e-02,-4.58251918e-03,
   9.33898892e-03, 1.01649687e-01, 1.90497171e-02, 7.69809410e-02},
 {-4.87722969e-03, 1.26287282e-01,-1.20022982e-01,-4.52192388e-02,
  -6.68190941e-02,-7.25940764e-02,-1.80238727e-02,-1.34065717e-01,
  -1.16831774e-03,-5.56223616e-02, 5.37231751e-02,-1.00879997e-01,
   9.52299610e-02, 4.76653837e-02,-7.32263848e-02,-2.07202762e-01,
  -1.80708244e-02, 2.92722993e-02,-8.37208182e-02,-7.07473382e-02,
  -1.10290289e-01, 4.43113558e-02, 8.04043710e-02,-1.28482580e-01,
  -2.34470498e-02, 6.45905314e-03,-6.82429671e-02,-2.40612635e-03,
  -3.48546058e-02, 5.69279864e-02, 8.90742987e-02,-7.85400048e-02,
  -6.28727823e-02, 5.27940653e-02, 6.02426156e-02,-1.89812426e-02,
   2.07789354e-02,-2.63472088e-02, 8.14045873e-03,-2.82933917e-02,
  -6.83584586e-02, 6.70095580e-03, 6.68926835e-02,-3.27115320e-02,
  -8.93798396e-02,-1.10429376e-01, 3.26446705e-02, 6.65572956e-02,
   7.65464781e-03, 1.11424923e-01, 1.57563895e-01,-6.00960217e-02,
  -7.87636191e-02,-3.58307781e-03, 1.93738770e-02,-1.69406578e-01,
  -5.84495589e-02, 2.35771518e-02, 8.37422535e-02, 7.49793276e-02,
  -1.33066669e-01, 5.08143306e-02,-9.13031474e-02, 4.62383069e-02,
   1.70578435e-02, 3.35746817e-02,-1.83272496e-01, 1.29580960e-01,
   3.86292115e-02,-1.37552649e-01,-1.18698053e-01,-1.77130714e-01,
  -2.55248286e-02,-9.75615308e-02, 3.27076875e-02,-1.05824143e-01,
   7.07593746e-03,-9.13328677e-03,-2.52461508e-02, 5.19552175e-03,
  -2.31391355e-01,-8.47556069e-02, 4.82725687e-02, 5.25499396e-02,
   1.04496464e-01,-2.23849103e-01, 3.68237235e-02,-1.13595471e-01,
  -9.36724395e-02, 7.66792987e-03,-4.30399291e-02,-4.89532575e-03,
  -6.60192445e-02, 7.39714876e-03,-1.74201250e-01, 1.29638659e-02,
   1.24715017e-02,-7.44246095e-02,-1.71203688e-02, 1.72753781e-02,
   3.03375181e-02,-2.10239783e-01, 1.02009280e-02,-1.19675614e-01,
   1.03704855e-02, 1.19288094e-01,-9.46684256e-02, 4.73148078e-02,
  -1.74536005e-01,-1.77001283e-02,-1.71065688e-01, 3.55527340e-03,
  -1.60168141e-01, 3.60540450e-02,-4.65626270e-02, 8.48385096e-02,
  -6.14694171e-02, 1.10265473e-02, 3.98912989e-02,-1.21751770e-01,
   1.74784496e-01, 1.15216397e-01, 2.19425008e-01,-1.40191093e-01,
   1.38640702e-02, 3.77492309e-02, 9.20098722e-02,-1.44908577e-01,
  -1.56344250e-01, 1.46482691e-01, 2.63168048e-02,-4.97338846e-02,
  -1.00117102e-01, 4.88882214e-02,-7.76641518e-02, 5.63593954e-02,
  -7.27689033e-03,-2.49974489e-01, 1.20973900e-01, 5.80795407e-02,
  -7.91383982e-02, 5.71291745e-02, 5.06934561e-02, 3.02874558e-02,
  -5.70827387e-02, 9.02912021e-02,-5.82388118e-02, 3.24610807e-02,
  -1.04083136e-01,-1.79571733e-01,-1.74323861e-02,-2.46781688e-02,
  -5.64655550e-02,-1.11391231e-01, 1.67172626e-02,-3.74132022e-02,
  -1.18948646e-01,-4.57742251e-03,-1.63948998e-01, 2.40540039e-02,
  -5.77564240e-02,-5.44167198e-02, 6.17745295e-02, 1.31728560e-01,
  -9.39863548e-02,-1.69870511e-01,-1.86767019e-02, 1.29593924e-01,
  -6.62744045e-02, 1.34241372e-01,-1.01448648e-01,-9.83252078e-02,
  -1.31015882e-01, 4.86630164e-02,-1.64543778e-01,-1.92940235e-02,
  -1.12454310e-01,-1.58832625e-01,-9.63370800e-02, 2.26736143e-02,
  -4.93050888e-02,-8.19967166e-02, 2.67231092e-02,-6.13696733e-03,
  -1.39238834e-01,-2.29791909e-01,-9.03598368e-02,-1.58598468e-01,
  -6.91937283e-02,-1.58910770e-02,-1.46898217e-02,-8.12894702e-02,
  -1.95638284e-01, 7.23674446e-02,-2.63037775e-02,-1.52922556e-01,
  -8.06451216e-02,-1.00529805e-01, 3.89809273e-02, 1.04261011e-01,
   4.27984968e-02, 4.29169051e-02,-1.36900181e-02,-9.03643519e-02,
  -6.23903982e-02, 9.69763547e-02,-9.43106338e-02,-3.98368016e-02,
   2.96635963e-02, 1.71683297e-01, 2.57094186e-02,-6.34621233e-02,
  -7.17479512e-02,-1.28892623e-02,-1.56520918e-01,-1.77747220e-01,
   4.85295579e-02,-1.69739220e-02,-1.61424473e-01,-6.16144203e-02,
  -4.36881855e-02, 3.67213413e-02,-1.13188736e-01,-9.51243117e-02,
  -5.46721136e-03,-1.95152372e-01, 5.83413132e-02, 4.87038568e-02,
  -7.30828792e-02,-2.46346846e-01,-1.87223181e-01,-1.96856454e-01,
  -2.28766680e-01,-1.56762853e-01,-9.47797149e-02,-3.95913981e-03,
   2.35794149e-02, 9.66855139e-03,-6.54027537e-02, 5.41841500e-02,
  -7.08121387e-03,-1.89225122e-01,-1.49523024e-03,-9.23690200e-03,
  -2.11292118e-01,-1.22071713e-01,-8.74887258e-02, 1.27436399e-01,
  -1.05948344e-01,-7.03108534e-02,-5.69709167e-02,-1.35874033e-01,
  -1.95841625e-01,-1.33160576e-01,-4.41817082e-02,-8.47975463e-02,
   4.42558639e-02,-5.13922572e-02,-4.25074100e-02,-4.68892194e-02,
  -7.30474740e-02, 1.08458892e-01,-1.14864400e-02, 1.44838884e-01,
   5.46354800e-03, 2.32326072e-02,-1.02527067e-01, 3.65749970e-02,
  -2.05866974e-02,-6.27798960e-02,-2.40728986e-02,-8.79282728e-02,
  -7.19064921e-02,-3.07223666e-03, 6.45323992e-02, 5.21072224e-02,
   1.16504788e-01,-1.37094222e-02,-2.13620476e-02, 4.80763018e-02,
  -1.55221194e-01, 6.19865991e-02, 6.95489943e-02,-4.57418598e-02,
  -3.31165083e-02,-4.28588204e-02, 4.82751755e-03,-2.05947191e-01,
  -1.72454100e-02, 8.05242285e-02, 1.24753855e-01,-7.66610131e-02,
  -6.76223114e-02, 4.92639914e-02, 2.47736089e-02, 7.00175613e-02,
   2.50846744e-02,-1.59773566e-02,-1.24518529e-01, 2.63824388e-02,
  -6.43230136e-03, 1.04238826e-03, 9.92043838e-02, 6.81116106e-03,
  -9.06718597e-02,-1.13850534e-01, 9.80057493e-02,-2.74795927e-02,
  -2.43206501e-01,-8.49607438e-02,-2.75259037e-02, 1.12016983e-01,
  -2.06224725e-01,-1.18084528e-01,-1.52671821e-02,-2.41907686e-02,
  -4.24479274e-03,-4.00906801e-02,-1.05901338e-01,-1.85744062e-01,
  -4.89197746e-02, 2.05998980e-02,-1.46071434e-01,-2.47999847e-01,
   6.19701408e-02,-7.37331286e-02, 2.91524862e-04, 8.52226019e-02,
   2.95359455e-03,-1.15199618e-01, 2.63192561e-02, 1.19048439e-01,
  -1.87260017e-01,-1.26670092e-01, 7.21464232e-02, 8.80069472e-03,
  -8.38530585e-02,-8.92135650e-02,-2.61461794e-01,-1.90621600e-01,
   9.22228843e-02, 6.05178103e-02,-1.43436939e-01,-1.44377351e-01,
  -2.75921971e-02,-1.61668360e-02,-3.51812579e-02, 9.06410962e-02,
  -3.65601778e-01,-1.33853570e-01, 4.74015158e-03,-1.58574700e-01,
   2.54919417e-02,-1.27165049e-01,-1.54985875e-01,-4.43944074e-02,
  -3.50823440e-03, 9.62331817e-02,-1.31679699e-02, 4.86827306e-02,
  -4.56956737e-02,-1.09034009e-01, 3.72840017e-02,-1.07051127e-01,
  -1.38771489e-01, 2.96600778e-02,-2.97975697e-04,-2.25251797e-03,
  -7.36031607e-02, 5.11987396e-02, 2.67077312e-02,-7.44749084e-02,
  -3.90435779e-03, 7.01517379e-03,-8.35060477e-02,-3.50996554e-02,
  -5.08076102e-02, 7.42700882e-03, 2.38767415e-02,-1.12270685e-02,
   1.46832824e-01,-5.26334122e-02,-4.23855446e-02,-2.43850321e-01,
   2.41614338e-02,-5.81423193e-02, 1.50904819e-01,-8.25475007e-02,
   1.89255346e-02,-1.01679750e-02,-2.04575628e-01, 4.64433655e-02,
  -9.14969668e-02, 6.87447488e-02, 4.07014787e-02,-1.25452146e-01,
  -4.02774848e-02,-1.37048010e-02,-1.11186042e-01, 1.98259801e-01},
 {-7.38350749e-02,-2.23078160e-03, 1.07422329e-01, 5.26527539e-02,
  -9.09257457e-02, 8.90892223e-02,-2.08740868e-02,-2.10742857e-02,
   9.50601026e-02, 2.59419642e-02,-9.56059694e-02, 7.21636266e-02,
   9.39192325e-02, 1.40062809e-01, 1.82955608e-01, 8.35822374e-02,
  -3.53965536e-02,-3.27529460e-02,-4.83074822e-02, 7.53151402e-02,
   1.16824318e-04, 3.07737682e-02,-4.02753092e-02, 3.92170064e-02,
   8.68076608e-02, 7.91162103e-02, 3.89619730e-02, 2.98621170e-02,
  -4.20785025e-02,-6.14551753e-02,-8.68459940e-02, 3.11599914e-02,
   7.28343651e-02,-1.21780457e-02, 3.94587927e-02,-1.36043325e-01,
  -1.53699722e-02, 1.16364835e-02, 9.19977576e-02,-9.80261043e-02,
  -1.54169202e-01,-2.66225394e-02,-2.53259554e-03, 7.52317607e-02,
   4.59988154e-02, 7.95286968e-02, 1.56362027e-01,-2.13568762e-01,
   7.58546516e-02, 1.22990660e-01,-8.96721110e-02, 5.44052385e-02,
   1.19676724e-01,-4.83214147e-02, 1.49106486e-02,-1.13092624e-01,
  -1.53811604e-01, 1.22467622e-01, 5.39128892e-02, 9.21750963e-02,
   4.45917584e-02, 6.53252080e-02, 7.06254169e-02, 1.22728556e-01,
   5.34572080e-02, 1.59050554e-01,-2.49668714e-02, 5.65916263e-02,
   1.01576917e-01, 7.21409172e-02, 9.75609049e-02,-1.87237710e-01,
  -1.44878868e-02,-1.27349481e-01, 3.62000093e-02, 3.64473052e-02,
   1.14784263e-01,-1.83985173e-03, 6.37976173e-03,-3.18061449e-02,
   1.06159732e-01,-1.58326458e-02, 8.46689641e-02, 1.39557600e-01,
   4.49933149e-02,-9.61801335e-02, 1.25009656e-01,-3.36159207e-02,
   1.55103013e-01, 7.56569207e-02, 1.24745052e-02,-1.23227132e-03,
  -1.50770888e-01, 4.12477239e-04, 1.31367952e-01, 1.08571850e-01,
   1.57415286e-01, 1.59787312e-01, 5.63148074e-02, 9.34679955e-02,
   4.21206318e-02,-1.03246838e-01,-3.28321904e-02, 7.47073954e-03,
  -2.95378920e-02,-1.44662717e-02, 1.54206336e-01,-6.73507303e-02,
   6.56541586e-02,-5.30530326e-02, 1.73507839e-01,-1.75699741e-02,
   1.66377786e-03,-8.67513381e-03,-1.23902522e-01,-4.20936346e-02,
   1.14687160e-01,-4.75058816e-02, 3.98562774e-02,-6.48502633e-02,
   5.76453991e-02,-3.30553986e-02, 1.04680657e-02,-2.95143723e-02,
   7.19211176e-02, 5.00732474e-02, 7.32716098e-02, 1.13694062e-02,
   3.72889265e-02, 6.64047748e-02, 4.29161601e-02, 2.12694183e-02,
   5.09636775e-02,-1.31483763e-01,-5.71140908e-02,-1.28683046e-01,
  -6.36561289e-02,-6.43080547e-02, 2.12488696e-03, 1.98773459e-01,
  -8.75011757e-02,-1.09414272e-01, 7.00076148e-02, 5.42243719e-02,
  -1.38621524e-01,-1.22975754e-02,-7.06391707e-02, 1.94483027e-01,
  -1.15549341e-02,-1.39012963e-01, 2.83159055e-02,-1.73993319e-01,
   1.35448352e-01,-2.32215628e-01,-9.50141996e-02, 1.04970031e-03,
  -7.06681460e-02,-1.29116461e-01, 7.59486947e-03, 1.16763353e-01,
  -1.64002813e-02, 1.13059498e-01,-5.73681667e-02, 9.13501009e-02,
   5.93069084e-02,-2.02132724e-02, 7.82129094e-02, 1.77550063e-01,
   1.07736349e-01, 3.88486385e-02, 7.33065382e-02,-4.40804288e-02,
  -2.77756043e-02,-4.19080220e-02,-9.78145078e-02, 1.52658716e-01,
  -8.09790865e-02, 4.40987200e-02,-9.11130160e-02,-4.13313694e-02,
   1.06132783e-01,-2.30106898e-02, 4.75080423e-02, 1.21697530e-01,
   1.87347680e-01,-1.82908308e-02,-1.35347277e-01,-9.79430787e-03,
   1.30266413e-01,-6.76601157e-02,-3.55655737e-02,-1.40870914e-01,
  -1.03992276e-01, 1.02183312e-01,-3.14083770e-02,-5.86190633e-02,
   1.05332583e-01, 2.21435092e-02, 8.42966586e-02,-4.35490161e-02,
   2.46189088e-02,-1.39018651e-02,-7.00088963e-02, 8.09474215e-02,
  -1.13651209e-01,-6.55798987e-03, 4.29776050e-02,-1.06786815e-02,
   1.49154076e-02, 6.95200711e-02,-1.30274082e-02, 2.51042470e-02,
  -3.36524360e-02,-7.22106313e-03,-5.19346148e-02,-1.63159110e-02,
  -2.03647260e-02,-5.56138121e-02,-4.79082204e-02,-5.90494275e-03,
   4.41293195e-02, 3.40974182e-02, 1.71213858e-02, 2.23191351e-01,
  -1.71182483e-01,-1.76714033e-01,-3.58950906e-02, 1.57223463e-01,
  -2.79364232e-02,-1.51835233e-01,-2.36361362e-02,-9.35918987e-02,
  -1.18425839e-01,-1.64639413e-01,-1.94674149e-01,-1.04456581e-02,
  -4.26324457e-02,-2.25594901e-02, 5.32330200e-02,-6.98162243e-02,
  -8.28062668e-02,-4.39515114e-02,-1.01463303e-01, 1.17900155e-01,
  -1.17249034e-01, 1.23577245e-01, 1.17464006e-01,-7.12729171e-02,
   5.08740507e-02,-4.99654142e-03, 8.19042474e-02, 1.05691329e-01,
  -1.27455965e-02, 6.65374706e-03, 7.69472197e-02, 1.25715211e-01,
  -2.34724004e-02, 6.81583136e-02, 2.30893064e-02, 5.04169352e-02,
   1.51961610e-01,-4.06573303e-02,-1.14766490e-02, 6.04580976e-02,
   2.06308484e-01,-1.91777144e-02,-8.44788365e-03, 4.60054316e-02,
  -2.57567074e-02,-8.26714113e-02,-2.12758556e-02,-2.11264566e-01,
   4.92672995e-02, 7.10149184e-02, 6.05010986e-02, 2.20175982e-02,
   7.25852996e-02,-7.46396929e-02,-3.29820961e-02, 4.79054041e-02,
  -2.38833819e-02, 1.00074686e-01, 2.10519619e-02,-4.95809689e-03,
  -9.83172357e-02,-7.15783983e-02,-1.00518309e-01,-1.91363230e-01,
  -1.74597967e-02, 7.18648806e-02, 1.63247399e-02, 1.48211032e-01,
  -4.49814610e-02,-7.77862743e-02,-1.18767023e-01, 7.70200193e-02,
  -1.61230341e-02,-3.19467150e-02,-5.44481575e-02,-1.70214683e-01,
   3.44274975e-02,-1.76116034e-01,-1.71733990e-01, 8.65118429e-02,
   1.20062949e-02,-1.27685592e-01, 2.01692097e-02,-2.68242627e-01,
   5.28262975e-03,-1.04892336e-01,-6.52113557e-02,-2.21705809e-02,
  -1.24579608e-01, 8.23565498e-02,-2.51488000e-01, 3.04194093e-02,
   2.90529802e-02, 1.16890192e-01,-9.45055559e-02, 8.41182172e-02,
   7.22868145e-02,-7.02819377e-02, 1.54384971e-01,-7.78100267e-02,
  -8.67047980e-02,-4.38012667e-02,-3.32050100e-02,-2.52702776e-02,
   1.06886737e-01,-1.23304710e-01, 2.66969297e-03, 1.95045620e-02,
   4.61897478e-02,-1.15082614e-01,-1.33379698e-01,-5.95081896e-02,
   6.71939775e-02, 3.68178263e-02,-9.99137387e-02,-2.89555360e-02,
  -2.27835756e-02,-2.88830027e-02, 6.69360310e-02, 1.55631036e-01,
   1.14293896e-01, 7.16325045e-02, 1.03684373e-01,-2.11884342e-02,
   6.20067753e-02, 1.43139392e-01,-1.31464943e-01,-1.11939207e-01,
   8.43119547e-02,-4.38988991e-02,-4.01040427e-02, 1.63079775e-03,
   2.38427836e-02,-5.82511947e-02, 5.06757908e-02, 9.69143771e-03,
   1.23768814e-01,-3.09728328e-02,-1.34335747e-02,-7.79708475e-02,
   2.30787218e-01,-1.05303779e-01, 3.39421444e-02,-5.28966635e-02,
   1.05990715e-01, 9.20189992e-02, 2.67535467e-02,-6.07433468e-02,
   6.49495274e-02,-5.97442780e-03, 3.99856865e-02, 8.90022442e-02,
  -1.87679306e-02, 6.70592263e-02, 2.15025321e-01,-8.32652748e-02,
   1.93630323e-01,-4.45689522e-02,-2.23482341e-01, 1.80806920e-01,
   8.91641453e-02, 8.56534839e-02, 7.69289955e-02,-3.70524935e-02,
   1.05787016e-01, 2.57883538e-02,-1.16103426e-01, 1.18605467e-02,
   9.75850672e-02, 1.63243767e-02, 1.21692762e-01,-5.15445555e-03,
   5.59099130e-02, 2.97844149e-02,-1.90581307e-01, 7.47005567e-02},
 {-4.46852855e-02,-9.70855728e-02, 8.79023224e-02,-5.02648056e-02,
   3.57092991e-02, 2.69124229e-02,-9.60802138e-02, 1.64928120e-02,
   9.14552074e-04,-4.46497016e-02, 4.35709357e-02,-1.25237286e-01,
  -6.14337139e-02,-9.28371102e-02,-9.22580212e-02,-1.06838755e-01,
  -6.86597452e-02, 3.88613855e-03,-1.20292120e-01,-1.14981458e-01,
   3.31381187e-02, 2.65927408e-02,-7.09698573e-02, 7.17466250e-02,
  -1.34942606e-01,-7.45634288e-02,-6.19895682e-02, 5.31813279e-02,
  -1.12230755e-01, 3.69256847e-02,-8.79102647e-02,-3.44408602e-02,
   7.83131942e-02, 3.99529524e-02, 1.26318922e-02,-7.30785802e-02,
   1.62827522e-02, 1.21876471e-01,-4.19245614e-03,-7.97446445e-02,
   7.02145472e-02, 4.07234021e-02,-8.04266930e-02,-1.25979558e-01,
  -1.12681203e-01, 1.28723606e-01, 3.70125733e-02, 7.76539370e-02,
   1.01328246e-01, 4.94230241e-02,-8.70411620e-02,-1.13948323e-01,
  -1.00739270e-01,-8.34442154e-02,-1.16911799e-01, 4.05496731e-02,
  -3.16886418e-02, 2.61287950e-02,-1.21209525e-01, 2.25859750e-02,
  -1.09416604e-01, 7.74876475e-02, 5.69825508e-02, 1.06509943e-02,
   2.90572308e-02, 1.77689306e-02,-4.50363122e-02,-2.23335773e-02,
  -1.63584977e-01, 1.35699421e-01, 6.61004558e-02,-3.80957797e-02,
   7.69809708e-02,-7.34961107e-02,-6.05614223e-02,-4.42776084e-03,
   3.34312469e-02, 2.98978891e-02, 1.95718929e-02, 3.72363292e-02,
   7.61216357e-02, 6.17354326e-02,-1.44391075e-01, 9.66847092e-02,
  -1.69482715e-02,-4.16364381e-03,-7.83867836e-02, 9.73236933e-03,
   1.16656888e-02, 3.93754570e-03, 7.50214830e-02,-1.82641614e-02,
  -1.17703779e-02,-8.32596347e-02,-2.32505929e-02,-3.94958965e-02,
  -2.16929801e-02, 4.40427773e-02, 3.93667072e-02,-2.58468315e-02,
   4.53676209e-02,-5.99116180e-03, 1.27137497e-01, 7.13866949e-02,
  -5.97270727e-02,-8.49336311e-02, 4.08413298e-02,-2.08345894e-02,
  -2.92869844e-02, 2.43022628e-02,-7.55179077e-02, 2.84505542e-02,
  -7.85137042e-02,-3.09909768e-02, 7.97537938e-02, 6.19609328e-03,
  -5.08792475e-02,-1.32125646e-01, 9.61241201e-02,-1.34139836e-01,
   1.22787014e-01, 1.51309781e-02,-9.95697677e-02, 1.37701491e-02,
   9.07289330e-04, 1.37706976e-02, 4.40141112e-02,-9.58323702e-02,
   6.16763681e-02, 6.73291162e-02, 8.97273347e-02,-8.81781504e-02,
   1.05014481e-01, 8.50815773e-02,-1.94797181e-02, 2.51988564e-02,
  -4.62248400e-02,-4.28331196e-02, 1.11526631e-01,-8.44210759e-02,
   2.20948793e-02,-6.70544431e-02,-7.75957853e-02,-6.13324605e-02,
   9.03150626e-03, 3.33424173e-02, 1.81776322e-02,-8.23275000e-03,
   2.85538919e-02,-2.67333705e-02,-2.29895972e-02,-6.74284920e-02,
   5.60069419e-02, 3.77274454e-02,-7.57031888e-03, 8.21959823e-02,
   3.35266651e-03, 5.07457107e-02,-1.00638203e-01,-2.47536227e-02,
  -7.22684935e-02,-8.71818662e-02,-4.10558209e-02,-4.54442166e-02,
   7.53922239e-02, 6.85862452e-02, 3.18597294e-02,-8.60698894e-02,
   5.38422726e-02,-5.92051889e-04,-6.14629947e-02,-6.48766980e-02,
   5.83695201e-03,-4.87122200e-02, 3.12199425e-02,-1.30394235e-01,
  -2.43258569e-02, 7.61815384e-02,-3.11467163e-02, 6.17590323e-02,
   1.84973341e-03,-1.12173319e-01,-1.11081988e-01, 4.53549400e-02,
   6.11764751e-03, 1.02661394e-01, 1.00435041e-01, 3.70302834e-02,
  -1.22520924e-01, 1.40525708e-02, 7.30922213e-03, 2.76729036e-02,
  -3.37220915e-03, 3.37754823e-02,-8.90391022e-02,-7.71008581e-02,
   1.57144889e-02,-5.66339977e-02,-1.09785363e-01, 1.62295643e-02,
  -2.34958120e-02, 4.97367494e-02, 3.20146233e-02,-2.54375935e-02,
  -8.09596479e-02, 3.41287963e-02, 2.23782975e-02,-1.06277324e-01,
   2.10113532e-04,-9.18851122e-02,-6.44596592e-02,-6.48647845e-02,
  -4.32880819e-02, 1.15662348e-02,-2.45195404e-02,-9.17491093e-02,
  -1.98875014e-02, 2.28003715e-03,-5.47249336e-03,-9.25576463e-02,
   4.62175272e-02,-7.96615109e-02, 8.12814236e-02, 5.66279702e-02,
  -5.22528253e-02,-1.13067590e-02, 8.19547251e-02,-3.59144388e-03,
   4.23990227e-02, 6.61499705e-03, 1.57138577e-03,-2.66609360e-02,
  -1.77432925e-01, 5.06199151e-02, 6.39828220e-02, 3.62269804e-02,
  -2.85965800e-02,-2.80047636e-02,-8.87768641e-02,-1.51069283e-01,
  -8.30102265e-02,-4.05980833e-02,-6.90344647e-02,-2.46909764e-02,
   4.71259514e-03, 5.66993002e-03, 6.16642050e-02, 2.61297468e-02,
   9.07633379e-02, 6.69199154e-02,-8.80802944e-02, 4.87467125e-02,
  -1.18190469e-02,-3.38534191e-02, 3.27000730e-02,-1.44745067e-01,
   5.84560856e-02, 3.76267657e-02,-3.03740054e-02, 4.68477309e-02,
   2.08208915e-02,-8.08782056e-02,-8.62674788e-02,-1.21091500e-01,
   3.32498848e-02, 1.08769402e-01, 2.81129777e-02,-4.22298163e-02,
   7.80999213e-02,-6.75861835e-02,-4.33114879e-02,-5.71340211e-02,
   7.59809166e-02, 3.66924447e-04,-2.91154571e-02, 2.78058052e-02,
  -1.21313453e-01, 1.67102665e-02, 5.78495301e-02, 5.18413319e-04,
  -5.33987582e-02, 1.21663623e-02,-4.09146026e-02,-3.40429880e-02,
  -8.82220641e-02, 2.73046214e-02, 9.48928073e-02, 6.49813414e-02,
   6.83956742e-02, 1.49303246e-02, 1.07120924e-01,-8.93637910e-03,
  -1.29661664e-01,-6.50533363e-02, 7.67469332e-02,-5.85376620e-02,
  -8.92854631e-02,-8.68509263e-02,-1.01437658e-01,-6.08696900e-02,
  -6.19329847e-02, 7.43603557e-02, 3.49061191e-02,-1.00151515e-02,
  -4.61119041e-02,-1.40582129e-01,-8.40913504e-02, 1.09500162e-01,
  -7.42414445e-02,-8.32282454e-02,-8.59911814e-02,-1.32020593e-01,
  -1.20075375e-01,-2.59250049e-02,-1.04586393e-01, 8.30600709e-02,
  -1.09622732e-01,-6.18721135e-02, 4.06325646e-02,-9.40941200e-02,
  -1.15218632e-01,-3.92945968e-02,-1.22314662e-01, 7.93074667e-02,
  -9.19433311e-02,-1.22763783e-01, 2.77484357e-02, 3.71509567e-02,
   3.21323611e-02, 8.52758884e-02,-6.53774291e-02,-4.28480580e-02,
   1.47478776e-02,-6.99741095e-02, 9.95717384e-03,-5.96296750e-02,
  -1.05786540e-01,-4.48187627e-02,-3.84588428e-02,-8.64052102e-02,
  -8.23277235e-02,-1.86129604e-02,-7.16110095e-02, 8.47439561e-03,
  -3.90582234e-02,-9.44542140e-02, 7.02117532e-02,-2.29903925e-02,
   4.11322154e-02, 1.23610785e-02, 1.98524222e-02, 8.66249129e-02,
  -6.76846951e-02, 1.35407299e-01,-9.67402104e-03, 2.97225099e-02,
  -9.94249135e-02,-5.70087228e-03, 6.12500086e-02,-9.93984751e-03,
  -9.09986869e-02, 5.00336736e-02,-8.44184309e-04,-1.14280954e-01,
  -3.53797264e-02, 1.31736771e-04,-5.71790636e-02, 9.65222418e-02,
  -6.51218891e-02, 6.85391873e-02,-4.47033383e-02, 5.79067469e-02,
   5.93713820e-02,-1.49474427e-01,-1.76901813e-03,-4.20107469e-02,
   1.59645770e-02,-8.59070644e-02, 5.87584712e-02, 2.73676664e-02,
   4.64092940e-02, 9.72218513e-02, 7.20108002e-02, 6.03051521e-02,
   2.74318755e-02, 4.41015922e-02,-1.21994779e-01,-7.78323561e-02,
  -9.50001180e-02, 9.70768407e-02, 5.81366494e-02,-9.68063474e-02,
  -1.38470933e-01, 4.62315381e-02,-4.20689955e-03,-1.19901605e-01,
  -3.29439268e-02, 1.13737717e-01,-4.56891395e-02,-5.84771559e-02},
 {-1.14555560e-01, 5.64095862e-02, 3.32093202e-02,-1.85433794e-02,
   2.21105292e-03,-6.63567334e-02, 6.04695119e-02, 1.21700000e-02,
  -2.78435778e-02, 1.85457245e-02, 3.14166136e-02, 1.45022692e-02,
   2.48193741e-02, 5.10408059e-02, 1.03929728e-01,-7.33263418e-02,
   3.87138389e-02,-1.63319036e-02,-3.47516164e-02,-2.13660017e-01,
  -3.73019986e-02,-3.27795260e-02, 8.29765853e-03, 1.62726082e-02,
  -5.65852337e-02,-1.01469792e-01, 1.06269252e-02, 5.36266007e-02,
  -4.80903387e-02, 1.37392640e-01, 3.85212600e-02,-9.36771855e-02,
  -4.83053252e-02, 6.92062601e-02,-9.31901261e-02,-7.69543797e-02,
  -5.79437762e-02,-8.26468021e-02, 3.25825177e-02, 5.06502539e-02,
  -3.55279222e-02,-9.76143926e-02,-6.94252402e-02,-1.33783035e-02,
  -8.86369869e-02, 4.11265381e-02, 8.74289349e-02,-6.73830435e-02,
   1.18531259e-02, 1.02730922e-01,-3.02988803e-03, 8.24061185e-02,
   1.32912667e-02, 6.30839244e-02, 1.87299885e-02,-2.49179099e-02,
  -6.25995696e-02,-4.66789789e-02,-3.60307023e-02,-2.64403727e-02,
  -1.02199093e-01,-1.34998977e-01, 9.68124196e-02,-1.33817896e-01,
   5.84332384e-02, 6.58988804e-02,-1.02687217e-01,-6.15146719e-02,
  -1.31661236e-01,-1.01808921e-01, 5.36417449e-03, 3.80564108e-03,
  -9.74067580e-03,-4.42722738e-02,-8.52234568e-03,-5.03144879e-03,
   5.45463897e-02, 1.42305536e-04,-1.50938015e-02,-2.48398203e-02,
  -1.10044228e-02,-1.69250264e-03,-1.61797386e-02,-1.02000907e-01,
   1.05367161e-01, 1.35745937e-02, 3.11950762e-02,-3.82537395e-03,
   4.24491502e-02, 1.29221482e-02,-2.04338189e-02, 4.47623208e-02,
  -3.38433348e-02, 3.15605476e-02,-1.00427076e-01,-8.78510065e-04,
   3.07608955e-02, 2.04649121e-02, 9.58496332e-02,-1.35669395e-01,
  -3.14898826e-02, 4.34062704e-02, 6.66013807e-02,-9.31185335e-02,
   9.90626961e-02,-1.10860802e-01,-1.29729258e-02,-9.00342017e-02,
   4.18329760e-02,-2.03946978e-02,-1.04233086e-01,-1.67465255e-01,
  -3.51998396e-02, 1.30380169e-01, 3.68371084e-02, 6.25654459e-02,
   8.28856677e-02,-6.85741678e-02,-1.18243136e-01, 9.43681051e-04,
   3.71661335e-02,-4.03631181e-02,-5.38954288e-02, 1.84185859e-02,
   7.81582221e-02, 1.17112927e-01,-5.23276441e-02, 3.45220529e-02,
  -5.36642410e-02,-5.23891859e-02,-8.50344673e-02,-1.36532441e-01,
  -3.45938690e-02,-7.87330195e-02,-3.28291543e-02,-8.24906677e-02,
   9.16882325e-03, 6.54018000e-02, 8.20291601e-03, 9.59086884e-03,
   2.64965724e-02, 7.36635029e-02,-6.35443926e-02,-8.01688507e-02,
  -1.49752080e-01, 6.35619611e-02,-4.28372137e-02,-1.19721688e-01,
  -4.70033325e-02,-3.96252237e-02, 4.27104943e-02,-1.77514367e-02,
  -6.39048666e-02, 3.41430940e-02,-3.92987132e-02,-6.26440495e-02,
  -2.96462583e-03,-1.38831079e-01, 2.66765561e-02,-1.06485941e-01,
  -2.44675670e-02,-1.50219545e-01,-7.53404498e-02,-1.03075705e-01,
  -3.19745317e-02, 8.10905546e-02, 2.86419392e-02, 4.47595678e-02,
  -4.92093228e-02,-3.65913361e-02,-5.34980372e-02,-3.92728187e-02,
   6.98278397e-02, 3.03657632e-03,-9.53504071e-03,-1.20972723e-01,
   1.14934519e-01,-1.78534865e-01, 7.31802806e-02, 2.46754638e-03,
  -5.27170040e-02,-8.65539238e-02, 4.68085408e-02, 1.83234236e-03,
  -5.66108525e-02,-2.71499418e-02,-4.98304404e-02,-1.87370814e-02,
  -3.43363136e-02, 8.38103443e-02, 3.59354429e-02, 6.38964528e-04,
   4.48707007e-02,-5.73726036e-02,-1.58222690e-02,-1.61579728e-01,
   2.55994201e-02, 4.72004339e-03,-8.19937512e-02,-3.33727226e-02,
   8.81955996e-02, 8.70920159e-03,-1.19804675e-02, 7.13744313e-02,
  -4.18943353e-02,-7.84853939e-03,-1.72865875e-02,-4.32770103e-02,
   2.90139578e-02,-4.79688309e-02,-1.10680476e-01, 5.03298007e-02,
  -1.33513078e-01, 8.50252882e-02,-1.84908323e-02, 6.07768968e-02,
  -5.83839715e-02, 2.17288509e-02, 1.93212945e-02,-1.45183951e-01,
   2.21442468e-02, 5.58129326e-02, 2.11984012e-02,-6.58132285e-02,
  -5.27451485e-02,-6.35076035e-03,-1.88767910e-01,-7.60541186e-02,
  -2.28850394e-02, 3.35552283e-02, 5.99404685e-02,-6.05995469e-02,
  -5.12638614e-02,-1.27079338e-01, 4.24947962e-03, 1.25878811e-01,
   8.81473646e-02,-2.82773096e-02,-5.95381595e-02,-4.36319672e-02,
   6.54781386e-02, 1.70807794e-01, 1.71407126e-02,-4.23267297e-02,
   2.28480808e-02, 4.12276294e-03,-6.23873211e-02, 5.86861111e-02,
  -3.45038669e-03, 8.12627450e-02,-7.35524818e-02, 4.22149114e-02,
  -2.23639756e-02, 5.86913116e-02,-6.79359883e-02,-1.27964273e-01,
   8.01593289e-02,-1.14467805e-02, 1.32276416e-01,-8.66697878e-02,
   3.79429869e-02,-3.58842574e-02, 1.15874112e-01,-3.68771255e-02,
   3.73162515e-02, 1.34625025e-02,-1.12813972e-01,-2.88856216e-02,
   7.79573545e-02,-4.05371841e-03,-7.56917223e-02, 9.91656631e-02,
   2.23605223e-02,-1.66464858e-02, 9.25031006e-02,-5.59587665e-02,
  -2.06882283e-01,-4.44972981e-03, 2.00930431e-01,-1.27366781e-01,
  -7.34634921e-02, 1.32742226e-01, 3.50944372e-03, 1.97391566e-02,
  -8.46941844e-02, 2.32311692e-02, 5.01322262e-02, 1.89133026e-02,
  -3.44420373e-02,-1.28685325e-01, 3.21681127e-02, 1.38293579e-01,
  -7.59653822e-02,-1.12593584e-01,-5.99983409e-02,-3.01578874e-03,
   6.31630868e-02,-3.97824459e-02, 3.62378955e-02,-7.75067415e-03,
  -1.60778403e-01,-8.37658271e-02, 7.74829462e-02,-3.35190743e-02,
  -1.44488916e-01,-8.50578304e-03, 4.39070649e-02,-2.79304236e-02,
  -4.70757112e-02,-5.37158176e-02,-7.29186684e-02,-9.98032168e-02,
   8.47426355e-02, 1.87877566e-02, 1.16129071e-01, 3.53048854e-02,
   2.15252470e-02,-7.78359175e-02, 1.07591122e-01,-8.12942013e-02,
  -1.19661823e-01,-1.58437341e-02,-4.67883572e-02, 1.02830254e-01,
  -5.84364943e-02,-5.88716194e-02, 9.12544951e-02,-9.28618386e-03,
   6.67865351e-02,-3.84013494e-03,-2.61666197e-02,-7.92048499e-02,
  -3.13697569e-02, 3.51538486e-03,-5.08614257e-03,-7.51196174e-03,
   8.06843340e-02, 1.59765556e-01, 7.44176283e-02, 5.90308681e-02,
   4.58652675e-02,-5.09418063e-02, 1.52098343e-01, 1.92643609e-02,
  -6.35059103e-02, 2.73909848e-02,-4.43869531e-02, 3.90202901e-03,
  -1.00107349e-01,-1.18315674e-01, 1.09707154e-02,-7.91313276e-02,
   5.34049645e-02,-5.31982034e-02, 1.01211131e-01,-9.57904458e-02,
  -2.99321562e-02,-8.30846652e-02,-9.05088484e-02,-9.75338519e-02,
   6.03048550e-03,-4.94465455e-02,-4.63208742e-02, 4.12734551e-03,
  -1.13568306e-01,-1.27515391e-01, 6.43003583e-02,-2.78974175e-02,
  -6.35947213e-02,-1.06970683e-01, 3.15105952e-02, 3.26030590e-02,
  -7.33584911e-02,-4.46540266e-02, 5.89784570e-02,-1.63906980e-02,
  -4.40565236e-02, 3.62345316e-02,-1.00556016e-01,-8.81138891e-02,
  -1.05944119e-01, 4.72467728e-02,-4.03367169e-03,-5.37345670e-02,
  -1.40963525e-01,-1.97405759e-02, 1.09903291e-02,-7.51289502e-02,
   1.34324312e-01,-7.11646825e-02, 9.45405886e-02, 6.13219403e-02,
   1.09941177e-02, 6.21867329e-02,-5.18745035e-02,-7.34681040e-02,
  -1.01614758e-01, 5.97491376e-02, 4.72453721e-02,-3.86957303e-02},
 {-2.24247389e-03, 1.26377687e-01,-5.24259508e-02,-9.38254669e-02,
  -2.37295665e-02,-9.61465985e-02,-5.59166335e-02,-1.02197573e-01,
   5.77449463e-02,-1.11906938e-02,-4.39135768e-02,-1.88933425e-02,
   5.24882525e-02,-8.27249065e-02, 7.57744014e-02,-3.73001434e-02,
   3.56614850e-02,-3.84843536e-02,-1.03522733e-01, 5.25137335e-02,
   5.14425291e-03, 2.73189917e-02, 6.85602799e-02, 1.45899141e-02,
  -5.47640696e-02,-3.67186666e-02,-6.99044317e-02,-8.21424201e-02,
  -1.38342269e-02,-6.10523857e-02,-2.45011458e-03,-1.06044851e-01,
   6.74869642e-02,-8.04437771e-02, 2.77561620e-02, 4.96155210e-02,
  -1.12698138e-01,-8.57124701e-02, 1.25839248e-01, 6.68663606e-02,
  -3.66826430e-02,-1.12292908e-01,-2.78171524e-02,-1.50016233e-01,
   4.78542596e-02, 2.36795489e-02,-1.17577843e-01, 8.28070194e-02,
  -2.59712990e-02, 8.60053301e-02, 5.65948449e-02,-4.70811091e-02,
  -9.19064507e-02, 6.00128844e-02, 1.84929565e-01, 6.77384958e-02,
   1.07714318e-01, 1.83278769e-01,-1.15691297e-01,-6.24513626e-02,
  -6.55879006e-02, 4.65425178e-02,-4.27957345e-03, 4.62941155e-02,
   2.98051424e-02, 1.75487567e-02,-1.52598275e-03,-2.27706343e-01,
   2.02916339e-02, 9.12723020e-02, 9.51689109e-03, 9.80410352e-02,
   5.30240834e-02, 6.15860336e-02,-4.65713963e-02,-7.95508623e-02,
   2.00319290e-02, 4.27617952e-02,-1.17472701e-01,-4.05599736e-02,
  -7.17125982e-02,-1.00591309e-01, 1.76422428e-02, 2.69854330e-02,
   1.44271538e-01, 3.72886173e-02,-4.46752273e-02, 8.01463798e-03,
  -3.96355093e-02,-9.02918726e-02, 1.81013998e-02, 3.86178680e-03,
   7.78596252e-02, 2.79732551e-02,-1.31726160e-03,-1.34655498e-02,
  -1.53247595e-01,-1.12004280e-01, 2.92479470e-02,-2.36609951e-02,
   2.21577182e-01, 4.07234803e-02,-2.75510233e-02,-1.26152158e-01,
   1.75213050e-02, 6.48952127e-02,-8.91238227e-02, 3.22345793e-02,
  -1.57709420e-01,-2.23667454e-03, 8.21494609e-02,-1.82117056e-02,
  -2.57776789e-02, 9.67709869e-02, 5.65634035e-02, 2.37909034e-02,
   7.27271438e-02, 3.14027444e-02,-2.88546998e-02,-8.44679251e-02,
  -3.23308408e-02,-7.12179113e-03, 2.70474013e-02, 8.69256910e-03,
  -2.68263966e-02,-6.50693327e-02,-6.84354007e-02, 8.51533934e-02,
   7.85488188e-02, 1.63902342e-01, 5.76363467e-02,-2.75546443e-02,
   3.79086323e-02,-9.82120726e-03, 5.30933253e-02,-2.60378551e-02,
   2.23032862e-01,-1.06540024e-02, 9.22879297e-03,-4.85083275e-02,
  -4.23164815e-02,-2.33287401e-02, 4.08727042e-02, 8.43711663e-03,
  -3.62207070e-02, 1.18669039e-02,-6.17766939e-02,-8.05425867e-02,
   1.71984851e-01, 6.44404218e-02,-7.57337641e-03,-1.42718405e-02,
  -5.21700233e-02, 4.32675369e-02, 3.80771682e-02, 8.71269107e-02,
   1.40896970e-02,-1.26671910e-01, 1.05182724e-02,-1.70206398e-01,
  -1.00882076e-01,-1.96050689e-01,-1.17995083e-01, 6.72729081e-03,
   2.06569076e-01, 1.71763748e-01,-3.10532823e-02,-9.65846702e-02,
   1.09322771e-01,-1.57242373e-01, 1.22880593e-01,-3.65890153e-02,
   1.58073567e-02, 4.61402833e-02,-2.56123627e-03,-6.26680255e-02,
   8.60226974e-02, 1.31093353e-01,-1.47989899e-01,-5.95447831e-02,
   9.59855542e-02,-2.22308952e-02, 9.08968076e-02,-2.04539262e-02,
   1.34414330e-01,-6.87616765e-02, 5.37572056e-02, 7.08550513e-02,
  -5.65637276e-02, 2.82554030e-02, 1.03582017e-01, 7.06024319e-02,
  -1.69992708e-02,-3.38880979e-02,-1.58757329e-01, 7.77121261e-02,
  -2.45335456e-02,-1.70992061e-01,-1.23272717e-01, 1.00451536e-01,
   3.75063010e-02, 7.92649016e-03, 6.14304990e-02,-6.22702017e-02,
   1.08395830e-01,-8.32961127e-02,-8.39815810e-02, 7.12152794e-02,
  -5.75421974e-02, 7.18121827e-02,-1.07430086e-01,-1.02680065e-01,
  -1.19345691e-02,-5.27393259e-02,-9.56990346e-02,-1.93873554e-01,
   1.62468359e-01, 2.84765773e-02, 3.66694145e-02,-6.21667616e-02,
   2.81236004e-02, 2.60447916e-02, 6.65847817e-03,-3.33026834e-02,
   5.99994324e-02, 1.47990346e-01,-8.33658874e-02,-1.68193892e-01,
  -6.33085612e-03, 1.23075798e-01, 1.87081501e-01,-1.32551044e-01,
  -6.01226017e-02,-1.17515497e-01, 3.09398957e-02, 5.53770475e-02,
  -1.91813316e-02,-6.69627115e-02,-7.46589527e-02,-6.20148592e-02,
  -4.67629824e-03,-3.84695060e-03,-7.50414282e-02,-1.01632558e-01,
  -1.35286208e-02,-8.94425213e-02,-1.50549307e-01,-1.66495711e-01,
   5.65390587e-02, 8.88404623e-03,-2.33480837e-02,-1.33740097e-01,
  -1.34204309e-02, 2.88228747e-02, 8.34452733e-02,-4.37465645e-02,
   4.38450314e-02,-3.01692914e-02,-1.49100408e-01,-1.16888313e-02,
   1.03223445e-02,-1.20559439e-01,-1.95099965e-01,-8.91879275e-02,
  -1.10044889e-01,-1.36878848e-01,-6.38556480e-02,-9.10158008e-02,
  -1.17546037e-01, 4.01602350e-02,-7.02648908e-02,-3.73655511e-03,
  -1.30835399e-01, 2.30070904e-01,-1.24093130e-01, 1.03046842e-01,
   3.62423696e-02,-1.74754590e-01,-1.83072522e-01, 9.62486118e-02,
   7.11327568e-02,-1.67895295e-02, 7.45497271e-03,-3.53223681e-02,
   5.31114265e-02, 6.91444427e-02, 7.80310854e-02, 1.27357259e-01,
  -5.96430823e-02,-6.42606467e-02,-3.77944149e-02,-8.75348970e-03,
   9.03243348e-02, 4.10214029e-02,-3.81256603e-02,-7.31148869e-02,
  -5.84314484e-03, 1.19439162e-01,-6.02630340e-03, 2.04237271e-02,
  -6.56261891e-02,-1.18360342e-02, 6.23898469e-02,-1.85231119e-02,
  -1.27325192e-01, 2.37589091e-01,-4.71479259e-02, 4.50336672e-02,
   3.13605145e-02, 5.84647432e-02, 1.08846463e-01, 3.90028432e-02,
  -3.92641164e-02,-5.84724769e-02,-8.73239189e-02, 1.10863894e-01,
  -6.56488985e-02,-7.93126822e-02,-8.86882991e-02,-7.72898868e-02,
   5.33007383e-02,-3.25446539e-02, 1.52313873e-01,-4.01933677e-03,
  -7.31034875e-02,-1.39810130e-01,-6.29648641e-02,-9.03900247e-03,
  -1.24955364e-01, 2.24150792e-01, 1.31154403e-01,-2.59659030e-02,
  -3.94644327e-02,-6.66800439e-02, 1.21656025e-03,-5.49735092e-02,
   5.06753512e-02,-1.78829953e-02, 6.53158948e-02,-9.68954992e-03,
   1.06383801e-01,-4.45951223e-02,-1.68930963e-01,-6.07585870e-02,
  -1.70207694e-01,-1.13754280e-01, 6.13875613e-02,-3.14605460e-02,
  -1.18597709e-01, 7.81493932e-02, 8.56643394e-02, 3.26694623e-02,
   3.97517532e-02, 4.00281744e-04,-3.02317310e-02,-3.98613848e-02,
  -3.06196660e-02, 7.30957389e-02,-9.01290029e-03,-1.25791281e-01,
  -3.66214439e-02,-8.87716934e-02, 1.73321888e-02,-6.97107911e-02,
  -3.85580510e-02,-1.08863652e-01, 7.29917958e-02, 6.73836395e-02,
   4.59812395e-02, 7.75021166e-02,-1.41920611e-01, 5.32856062e-02,
   1.51155770e-01,-1.33565189e-02,-1.99027043e-02, 4.47991975e-02,
  -5.21937609e-02, 1.05626054e-01, 6.70875013e-02,-8.79355595e-02,
  -8.75910670e-02, 3.19111235e-02, 6.73591271e-02, 6.28144890e-02,
   6.78369179e-02, 3.58797275e-02,-9.39044636e-03,-4.18184549e-02,
   3.35964784e-02,-1.07581997e-02,-7.99548030e-02,-5.01523279e-02,
  -7.99536332e-02,-1.70313809e-02,-4.37626578e-02, 4.73745652e-02,
  -1.22223698e-01,-1.51815891e-01,-5.18564209e-02,-1.26380146e-01},
 {-4.47434280e-03,-4.73591313e-02,-1.42355382e-01,-1.67393059e-01,
   9.78228301e-02, 6.32590130e-02, 3.02234497e-02,-1.13276958e-01,
  -1.21746339e-01,-1.29751652e-01, 3.18182297e-02, 1.44652963e-01,
